//
// Generated by spiderweak using Python.
//

#ifndef CPP_PARAMETERS_H
#define CPP_PARAMETERS_H

#define HUNIT 150

#endif //CPP_PARAMETERS_H

const int hunit = HUNIT;

const float lstm_cell_input_weights[4 * HUNIT] = {0.026225101202726364, 0.03122224099934101, -0.028630269691348076, -0.13069482147693634, 0.010934925638139248, -0.016005832701921463, -0.04695124179124832, -0.02141059748828411, 0.0585847869515419, -0.09806443005800247, 0.2322874665260315, 0.014814882539212704, 0.3237355053424835, -0.09262281656265259, 0.043016258627176285, 0.054110877215862274, -0.08798673748970032, -0.08753249794244766, 0.01555628702044487, 0.061535757035017014, -0.05312195420265198, 0.018166949972510338, -0.0853567123413086, 0.005338544026017189, -0.09860821068286896, 0.003511972026899457, 0.04735245555639267, -0.10306531935930252, 0.065093994140625, 0.1156257763504982, 0.0170699842274189, 0.04129607975482941, -0.12856900691986084, 0.06921490281820297, 0.010928546078503132, -0.0581028014421463, 0.024844612926244736, -0.02922889217734337, -0.01395888440310955, -0.09097535163164139, -0.02617938630282879, 0.01980302482843399, -0.13342149555683136, 0.06760294735431671, -0.05298393592238426, 0.03873676061630249, -0.03189938887953758, -0.12629757821559906, -0.0377020537853241, 0.06751665472984314, 0.24071505665779114, -0.11190563440322876, -0.03871680796146393, -0.13116182386875153, 0.04116841405630112, -0.10236683487892151, 0.03945564106106758, -0.08543512970209122, -0.11517613381147385, -0.027316372841596603, -0.11010609567165375, -0.02144726924598217, -0.053380999714136124, -0.1266908198595047, -0.10226014256477356, -0.10249456763267517, 0.07242189347743988, -0.03583262115716934, 0.004625746980309486, 0.01912713050842285, -0.022975822910666466, -0.011100871488451958, 0.001781752798706293, 0.027243105694651604, -0.00868108682334423, 0.016588008031249046, -0.06277750432491302, 0.00041251370566897094, -0.08289363980293274, 0.02616591937839985, 0.027784161269664764, 0.023004857823252678, -0.005406530573964119, 0.025405677035450935, -0.06069474667310715, -0.0461147166788578, -0.09548740833997726, -0.08542154729366302, -0.06762798875570297, -0.025320902466773987, -0.08510969579219818, 0.005449987947940826, 0.0881800428032875, -0.011270992457866669, -0.03224751725792885, -0.06934823840856552, -0.09998203814029694, 0.04852558299899101, -0.050056952983140945, -0.1336297243833542, 0.036554593592882156, 0.010119372978806496, -0.05688557028770447, 0.2915559709072113, 0.07139017432928085, 0.04543399438261986, 0.018935520201921463, 0.0697474554181099, -0.01791621372103691, -0.039964161813259125, 0.054582130163908005, -0.062168434262275696, -0.0622624047100544, -0.05724762752652168, 0.010072661563754082, 0.2577744722366333, 0.04112747684121132, -0.062099892646074295, -0.08149714022874832, 0.02043936401605606, 0.006689328234642744, 0.06174204498529434, -0.06881093978881836, 0.08050864934921265, -0.10003935545682907, 0.05850124731659889, -0.07877324521541595, -0.00342558859847486, -0.06292864680290222, -0.06895072758197784, -0.046912264078855515, -0.04813838005065918, 0.04719869792461395, -0.004721206147223711, -0.06551869958639145, -0.05938732996582985, 0.009384839795529842, -0.06255742907524109, 0.0001740836160024628, 0.02592528983950615, -0.10444475710391998, -0.005734129808843136, -0.06451119482517242, 0.00816528219729662, -0.01734289526939392, 0.07619692385196686, 0.021313592791557312, -0.11081817746162415, 0.003624951932579279, 0.04119093716144562, -0.08494392037391663, 0.040285319089889526, -0.01778227835893631, 0.018480472266674042, -0.08107107877731323, 0.018289968371391296, -0.0026862621307373047, -0.0022849813103675842, -0.000997781753540039, 0.07000802457332611, -0.0928751528263092, 0.09831388294696808, -0.003653489053249359, -0.059532929211854935, 0.05757145583629608, -0.02785325050354004, -0.058449264615774155, 0.04905962944030762, -0.09334003925323486, 0.032982125878334045, 0.09190520644187927, 0.0963059663772583, -0.030544467270374298, -0.05974689871072769, 0.0378815233707428, -0.06372994184494019, -0.06986963748931885, -0.07315652072429657, 0.04523685574531555, -0.058569781482219696, 0.06431922316551208, 0.006565563380718231, 0.04771356284618378, -0.06327877938747406, 0.006700582802295685, 0.03187526762485504, 0.04163697361946106, 0.06908851861953735, 0.0791362076997757, 0.011724695563316345, 0.07573068141937256, -0.010766096413135529, 0.02182704210281372, 0.0024103596806526184, 0.0031781643629074097, 0.020111210644245148, 0.07670772075653076, 0.043381765484809875, 0.025402173399925232, -0.07708056271076202, 0.07530689239501953, 0.001379057765007019, -0.010814167559146881, 0.015137314796447754, -0.011873438954353333, 0.05144275724887848, 0.045950427651405334, 0.00730857253074646, -0.09773967415094376, 0.05756920576095581, 0.06043723225593567, 0.008251778781414032, 0.004789464175701141, 0.0926923155784607, 0.02099541574716568, -0.0030022189021110535, -0.04392469674348831, -0.01947418600320816, 0.03107243776321411, 0.0036024823784828186, 0.010093271732330322, -0.04656803607940674, -0.005078665912151337, -0.0019715577363967896, 0.0755033791065216, -0.06294004619121552, -0.06511235237121582, 0.06377334892749786, -0.06341618299484253, -0.06073744222521782, -0.025912709534168243, 0.09862588346004486, 0.07946448028087616, 0.05758786201477051, 0.08867165446281433, -0.0779859870672226, -0.05039826035499573, -0.0418214276432991, -0.03624938428401947, 0.07488805055618286, 0.06688125431537628, 0.0866318792104721, 0.044889673590660095, -0.06334440410137177, 0.09411756694316864, 0.08922235667705536, -0.044403281062841415, -0.042162153869867325, -0.07724369317293167, 0.04108123481273651, 0.038112714886665344, -0.0977441817522049, -0.04349566251039505, -0.07839186489582062, -0.07721555978059769, 0.08585527539253235, -0.025279827415943146, -0.02333609014749527, -0.03393455594778061, 0.040391892194747925, 0.07601077854633331, -0.0514577180147171, -0.02402471750974655, 0.07972043752670288, -0.009305186569690704, -0.06823194026947021, -0.009293824434280396, -0.060500700026750565, 0.03633679449558258, -0.03724612295627594, -0.004191629588603973, -0.003971464931964874, 0.061208829283714294, -0.08053655922412872, -0.002354234457015991, -0.06461361795663834, -0.054422322660684586, -0.05491570010781288, 0.04322776198387146, -0.02630908042192459, 0.04405350983142853, -0.04914967715740204, -0.022890359163284302, 0.005185768008232117, -0.048469770699739456, -0.09508950263261795, -0.09422476589679718, -0.03235992044210434, 0.03387349843978882, 0.04277721047401428, 0.034795865416526794, -0.06051287055015564, -0.04487057402729988, 0.07625572383403778, 0.015046820044517517, 0.0312405526638031, 0.005048483610153198, -0.02437971532344818, 0.08320541679859161, 0.09133534133434296, 0.0799402967095375, -0.005245652981102467, -0.005801430903375149, -0.06374495476484299, 0.009073344990611076, -0.006977182347327471, 0.013692233711481094, 0.06249397248029709, -0.08917245268821716, 0.008762785233557224, -0.1314142346382141, 0.0038420772179961205, 0.12586964666843414, -0.03876764327287674, 0.11266931146383286, 0.054995860904455185, 0.009726352989673615, 0.07952035963535309, -0.03532583266496658, -0.06780339777469635, 0.031874168664216995, -0.07795698195695877, -0.056111808866262436, -0.0022986719850450754, 0.034003764390945435, -0.03811483085155487, 0.04325108602643013, -0.0789208710193634, -0.03526030108332634, 0.11694449931383133, 0.015503804199397564, -0.11076965183019638, 0.06942616403102875, 0.0705314353108406, 0.0904742181301117, -0.03405647724866867, 0.10905571281909943, 0.02152050845324993, 0.09259649366140366, 0.006594695150852203, 0.07801079005002975, -0.006237146910279989, 0.08528108894824982, -0.06589657068252563, -0.011889302171766758, -0.10776518285274506, -0.06400224566459656, -0.08883512765169144, -0.05611927807331085, 0.04620436206459999, 0.12845949828624725, 0.078580342233181, -0.019055327400565147, 0.08043933659791946, 0.0619966983795166, -0.07085482776165009, 0.003697883104905486, 0.012209292501211166, 0.06727791577577591, 0.04235051944851875, -0.04536765441298485, 0.013205747120082378, 0.05071640759706497, -0.06024768948554993, 0.02932518906891346, 0.011256135068833828, 0.12351411581039429, -0.059703800827264786, -0.07109255343675613, -0.025277597829699516, 0.07342018187046051, 0.08805272728204727, -0.016124404966831207, 0.004856276325881481, -0.06773682683706284, 0.07223302125930786, -0.07029278576374054, 0.02608293667435646, 0.09591563045978546, 0.018300490453839302, 0.0047856043092906475, -0.0192174781113863, -0.020337961614131927, 0.04493628442287445, 0.014552584849298, -0.05104534700512886, 0.008693956770002842, 0.05040712282061577, -0.007610607426613569, 0.06102816015481949, -0.06279876083135605, -0.09706766903400421, 0.07930213212966919, -0.08339747786521912, 0.039299529045820236, -0.012520437128841877, 0.05409461632370949, 0.06375721842050552, 0.07660827040672302, 0.02827402763068676, -0.019083525985479355, 0.09115622192621231, -0.0063858418725430965, -0.1369493007659912, -0.06689847260713577, -0.01843012124300003, -0.06707115471363068, 0.013274715282022953, 0.0488135926425457, -0.07831943780183792, -0.051690474152565, -0.08768610656261444, -0.011962706223130226, -0.030188441276550293, 0.019731983542442322, 0.12524154782295227, 0.016736648976802826, -0.06343640387058258, 0.05856972560286522, 0.05644452944397926, -0.04637804254889488, -0.044469837099313736, -0.06352107226848602, 0.07819779217243195, 0.09571941941976547, -0.025858646258711815, 0.08583947271108627, -0.0016023903153836727, -0.018544718623161316, 0.023539047688245773, 0.088919498026371, -0.054727520793676376, -0.09439970552921295, 0.06041066348552704, -0.05505829304456711, 0.061634361743927, 0.012804049998521805, 0.005896475166082382, -0.024162570014595985, -0.03879512473940849, -0.0835782065987587, -0.06842175871133804, -0.027415502816438675, -0.0032835560850799084, -0.0011628360953181982, -0.017677893862128258, 0.06390374898910522, 0.09776081889867783, -0.08836936205625534, 0.10465854406356812, 0.08836613595485687, -0.0033205177169293165, -0.04632888734340668, -0.032914817333221436, -0.06341955065727234, 0.05456668138504028, -0.03528197854757309, -0.051932480186223984, 0.047288183122873306, -0.04532409831881523, 0.2506861984729767, 0.012264735996723175, 0.3240887522697449, 0.031568415462970734, 0.008764117956161499, 0.04881483316421509, 0.02581368386745453, 0.0687030479311943, -0.011338348500430584, 0.04801439493894577, -0.025654366239905357, -0.05130321532487869, 0.029056033119559288, 0.04525012895464897, -0.02875060960650444, -0.028800522908568382, -0.05684893950819969, -0.10700435936450958, -0.10749401897192001, 0.2015044093132019, -0.1139201819896698, 0.06418530642986298, -0.10771963000297546, -0.13223811984062195, -0.010261406190693378, 0.016368484124541283, 0.18073508143424988, 0.02751011960208416, -0.059306297451257706, 0.056747209280729294, -0.04523438587784767, 0.01535358838737011, -0.08438405394554138, -0.0593281090259552, -0.03927282616496086, 0.025857044383883476, -0.12990236282348633, -0.03524337336421013, 0.0598163865506649, 0.015975061804056168, 0.06697884947061539, -0.01298604067414999, -0.018413731828331947, -0.11508918553590775, -0.13129504024982452, 0.009981776587665081, 0.0017749741673469543, 0.058040931820869446, -0.09066988527774811, -0.1202419251203537, 0.024047307670116425, 0.016012338921427727, -0.030398664996027946, 0.06101180985569954, 0.01082864310592413, -0.09030589461326599, 0.10702869296073914, -0.10095283389091492, -0.005779400002211332, 0.063184455037117, 0.05940823629498482, -0.11160747706890106, 0.03275086730718613, 0.07251262664794922, -0.03869932144880295, -0.02709309570491314, 0.009119058027863503, 0.014521081000566483, -0.11013948172330856, -0.1125863790512085, -0.058065518736839294, 0.00031968727125786245, -0.01219314057379961, -0.04863946512341499, 0.07022807002067566, 0.043971166014671326, -0.01670748181641102, -0.12922197580337524, -0.09480368345975876, -0.06256245821714401, 0.06132757291197777, -0.06386606395244598, -0.021866392344236374, 0.04377787187695503, -0.07242948561906815, 0.006157625466585159, -0.10735286772251129, 0.02391289547085762, -0.013643794693052769, -0.05630829185247421, -0.012990106828510761, -0.0901436135172844, -0.033921003341674805, 0.2815232574939728, -0.010011296719312668, -0.08054666966199875, 0.025813374668359756, 0.01566452905535698, -0.002884384710341692, 0.06255792826414108, -0.06039179489016533, -0.06115264073014259, 0.018142443150281906, -0.03775370866060257, -0.1078474298119545, 0.3591999411582947, 0.04401390999555588, 0.06566182523965836, -0.021827183663845062, -0.0435311496257782, 0.017529228702187538, -0.018559832125902176, 0.0554838664829731, -0.06730707734823227, 0.022500930353999138, 0.061914388090372086, 0.0007567612919956446, -0.10165311396121979, -0.0036269989795982838, -0.032095156610012054, -0.07164264470338821, -0.06022338569164276, 0.007563796825706959, -0.13424034416675568, 0.02047560177743435, -0.00601160665974021, 0.019487157464027405, -0.09777028113603592, 0.008152753114700317, -0.004877672530710697, -0.10622513294219971, -0.05386767536401749, 0.043798379600048065, 0.059520870447158813, -0.022958608344197273, -0.0935249924659729, -0.09384335577487946, -0.04438615217804909, -0.06290288269519806, 0.05865396559238434};

const float lstm_cell_hidden_weights[4 * HUNIT * HUNIT] = {0.03779339790344238, 0.04057370498776436, 0.02501741237938404, -0.03284902125597, 3.56794371327851e-05, -0.013283533975481987, -0.03218672797083855, 0.0037159500643610954, 0.0006666438421234488, 0.01130390353500843, -0.023744776844978333, 0.04566941410303116, 0.025746546685695648, -0.04921213909983635, -0.03298752382397652, 0.04865100234746933, 0.034461610019207, -0.053731516003608704, 0.00729802530258894, -0.014536624774336815, 0.14063425362110138, -0.009181158617138863, -0.015790343284606934, 0.025951625779271126, 0.03380255028605461, 0.03970564529299736, -0.0016902684001252055, 0.007544933818280697, 0.07072867453098297, -0.09808354079723358, 0.0027960699517279863, 0.027840424329042435, 0.04516157507896423, 0.03358263522386551, -0.05667240172624588, -0.01370986457914114, -0.06683387607336044, -0.02985561639070511, -0.023889247328042984, 0.03086797706782818, 0.013331255875527859, 0.011381477117538452, 0.0358133465051651, -0.056625377386808395, -0.08718808740377426, 0.002606815192848444, -0.014908171258866787, -0.06880274415016174, -0.011768465861678123, -0.07015828788280487, -0.03545503690838814, 0.011497428640723228, -0.01053608488291502, -0.028716212138533592, -0.04704739898443222, 0.02289816364645958, -0.08805007487535477, -0.046670760959386826, 0.05625393986701965, 0.014372386038303375, -0.0013266578316688538, 0.04279395565390587, 0.0491412878036499, 0.01369091309607029, 0.031160106882452965, -0.02641698531806469, 0.047932617366313934, -0.012151091359555721, -0.024820230901241302, 0.027525972574949265, 0.004643561784178019, 0.06281932443380356, -0.040356557816267014, -0.09724509716033936, -0.05422474443912506, 0.030091507360339165, 0.0361710749566555, -0.023375585675239563, -0.12366933375597, -0.05753951147198677, -0.005675103515386581, 0.004741904325783253, -0.040896475315093994, 0.03310481458902359, 0.03313905745744705, -0.009392248466610909, -0.1011117547750473, -0.04751552641391754, -0.05166168510913849, 0.053223393857479095, -0.0447893887758255, 0.005903221201151609, 0.08961779624223709, 0.0022895692382007837, 0.023829307407140732, -0.015753434970974922, -0.0357297845184803, -0.06649734824895859, -0.02694130316376686, 0.023228304460644722, -0.024533171206712723, -0.015439541079103947, -0.009765283204615116, 0.0553409568965435, -0.024530956521630287, -0.04217293858528137, -0.008461709134280682, 0.04133867472410202, 0.04223437234759331, 0.08110962063074112, -0.009301189333200455, -0.047462183982133865, 0.06423570215702057, -0.00981172639876604, -0.015983063727617264, -0.006138158496469259, -0.026756303384900093, -0.06408218294382095, -0.018952058628201485, -0.04039827361702919, 0.0277682077139616, 0.020506909117102623, 0.1082029640674591, -0.018171526491642, 0.010641285218298435, -0.05684076249599457, 0.020023738965392113, -0.0040100631304085255, 0.005459165200591087, 0.031858790665864944, -0.033543363213539124, -0.030812399461865425, -0.02656542882323265, -0.029740314930677414, 0.01567927375435829, -0.014671454206109047, -0.03993374481797218, -0.023956481367349625, -0.009138436987996101, 0.07204103469848633, 0.008942940272390842, 0.021647948771715164, 0.0006443271995522082, 0.014758330769836903, 0.05086587741971016, -0.011374540627002716, -0.06112096831202507, -0.03877394273877144, -0.02865159697830677, -0.009892333298921585, 0.042632125318050385, -0.04194377362728119, 0.006906226743012667, 0.02772325649857521, 0.028227154165506363, 0.01740233413875103, 0.049853015691041946, 0.044504810124635696, 0.010994618758559227, -0.010175246745347977, -0.005135050043463707, 0.00016280151612590998, -0.016100673004984856, -0.03008975274860859, 0.02723054215312004, -0.027748771011829376, 0.003913776949048042, 0.07381369173526764, 0.06467229872941971, -0.004740717355161905, 0.009473842568695545, -0.025361308827996254, -0.05531427264213562, 0.04609743505716324, 0.0434049628674984, -0.058780547231435776, -0.023980077356100082, -0.06250885128974915, -0.032546646893024445, -0.10725712776184082, -0.0504123717546463, -0.12393751740455627, 0.06339381635189056, 0.05148553475737572, -0.051424264907836914, -0.012399189174175262, 0.0626399889588356, -0.011483600363135338, 0.023748518899083138, 0.035011980682611465, -0.06931465864181519, -0.05771319195628166, -0.030805811285972595, -0.01222745981067419, -0.0711200162768364, 0.009998548775911331, 0.0267177764326334, 0.015270025469362736, -0.0008681344334036112, 0.004349655471742153, 0.006645841058343649, -0.019341250881552696, 0.01275256834924221, 0.00897084828466177, -0.08436861634254456, -0.043461475521326065, -0.015985338017344475, -0.008356817997992039, -0.011947566643357277, 0.02752358838915825, -0.0033910819329321384, -0.07278832048177719, 0.01717204600572586, 0.07327082008123398, -0.037501443177461624, 0.0035145310685038567, -0.03415518254041672, 0.0005535896052606404, -0.007722941227257252, 0.06080096215009689, -0.038099151104688644, 0.023006539791822433, -0.04318329691886902, -0.024314330890774727, 0.08817248791456223, 0.04622342810034752, -0.03762875497341156, -0.08520280569791794, 6.070852396078408e-05, -0.053399357944726944, -0.04255908355116844, 0.002506787655875087, -0.0010114695178344846, 0.03811608627438545, 0.06081897392868996, 0.003453158773481846, -0.0076183718629181385, -0.02451004646718502, -0.018528621643781662, -0.03377946466207504, -0.028589382767677307, -0.034087859094142914, 0.026633568108081818, -0.02231302671134472, 0.02807582914829254, 0.002625530119985342, -0.01008597295731306, 0.006095517426729202, 0.004196638707071543, -0.015725577250123024, 0.051431212574243546, 0.04764501005411148, 0.024565817788243294, -0.02616659179329872, -0.06173853948712349, 0.06538625061511993, -0.053887587040662766, 0.009411425329744816, -0.028561178594827652, -0.10083847492933273, 0.033475831151008606, -0.033823467791080475, 0.005492334719747305, 0.026092568412423134, 0.012889985926449299, 0.003278725314885378, -0.023483388125896454, -0.008184277452528477, -0.010585123673081398, 0.008713283576071262, 0.04969383031129837, 0.001753338729031384, -0.00018150040705222636, -0.07195071876049042, 0.0038810158148407936, -0.007452039048075676, -0.04662465304136276, 0.025663239881396294, 0.001875249552540481, -0.05468975752592087, 0.06461601704359055, -0.03389762341976166, -0.02954830974340439, -0.015557524748146534, -0.049660470336675644, 0.051505621522665024, 0.06674586981534958, -0.011980393901467323, -0.04297478869557381, -0.08268122375011444, 0.03450596705079079, -0.008603369817137718, -0.00467362254858017, 0.0005796052282676101, 0.03145569562911987, -0.0609167143702507, -0.057702384889125824, -0.012238098308444023, 0.03865401819348335, -0.0060260300524532795, 0.03328415006399155, -0.035661835223436356, 0.03764547407627106, -0.030583709478378296, 0.00025089929113164544, -0.012612501159310341, 0.03093583695590496, 0.01889602467417717, 0.03240428864955902, 0.0012462278828024864, -0.06367019563913345, 0.055998172610998154, -0.0014081019908189774, -0.008844462223351002, 0.009821011684834957, 0.1131511926651001, -0.022208113223314285, 0.03953506052494049, -0.07919086515903473, 0.011274238117039204, 0.05121595039963722, -0.02625615894794464, 0.027301831170916557, -0.034061092883348465, -0.025005154311656952, -0.06080542132258415, 0.02483627013862133, -0.014222939498722553, 0.024015214294195175, 0.021411757916212082, 0.0028756950050592422, 0.05209798738360405, 0.05356986075639725, -0.052188701927661896, -0.005659342743456364, 0.01518723089247942, 0.081783227622509, -0.08373779058456421, -0.002152867615222931, -0.009756281971931458, 0.030172482132911682, 0.0892808809876442, -0.012220973148941994, 0.07204627245664597, 0.011905095539987087, -0.036011021584272385, 0.05227479338645935, -0.02906695567071438, 0.011170567013323307, -0.014784805476665497, 0.010226722806692123, -0.05993155017495155, -0.02033337764441967, -0.03330238163471222, 0.025609983131289482, 0.07149925082921982, 0.00923389196395874, 0.04495988413691521, -0.012657025828957558, 0.012777086347341537, 0.05156703665852547, -0.029115477576851845, 0.02400345914065838, 0.018071630969643593, -0.0011792897712439299, -0.029219023883342743, 0.07496602088212967, 0.06238306313753128, 0.014506269246339798, 0.008211211301386356, 0.02414810098707676, -0.05913098528981209, 0.025472434237599373, -0.030580738559365273, -0.00043435825500637293, -0.01589723862707615, 0.023396620526909828, 0.029866812750697136, -0.06658113747835159, -0.03592551499605179, 0.029852239415049553, 0.02724529057741165, -0.08863936364650726, -0.02885689027607441, 0.06131988763809204, 0.0030346608255058527, 0.0032594779040664434, -0.0014878574293106794, 0.009204631671309471, 0.013114850036799908, -0.024896617978811264, 0.07073993980884552, -0.004421239718794823, 0.06193426623940468, 0.023136863484978676, -0.08211962878704071, 0.005254857242107391, -0.027155475690960884, -0.037329282611608505, 0.005067321006208658, 0.017630284652113914, 0.010499531403183937, -0.00979274045675993, -0.031939662992954254, 0.004179252311587334, -0.0015907497145235538, 0.03226630762219429, 0.038942232728004456, 0.04683375358581543, -0.04291108623147011, -0.011952334083616734, 0.05330086871981621, 0.01609409786760807, -0.001624995842576027, 0.016329851001501083, -0.011299011297523975, 0.0008817500784061849, 0.006811709608882666, 0.03561343625187874, -0.07639489322900772, 0.09210295230150223, 0.019749894738197327, -0.010062620975077152, 0.04366669803857803, 0.006101724226027727, -0.022170202806591988, -0.005612627603113651, 0.014120091684162617, 0.06994324922561646, -0.0887853354215622, 0.02975102886557579, -0.004006823990494013, 0.01954166404902935, 0.029684968292713165, -0.05971493944525719, 0.0528726652264595, 0.004174721427261829, -0.009876327589154243, -0.008274761028587818, 0.05855412036180496, -0.006276560015976429, -0.0016615604981780052, -0.0338611900806427, -0.015791602432727814, 0.03294367715716362, -0.03270439803600311, 0.014073587022721767, 0.09216737747192383, -0.05223599448800087, 0.03168899565935135, 0.008866731077432632, -0.04561683163046837, 0.030825387686491013, 0.04821675270795822, -0.03207632899284363, 0.019106486812233925, -0.044502634555101395, 0.04284105449914932, -0.007318932097405195, -0.019190015271306038, 0.0005771773867309093, 0.002003336325287819, 0.015670787543058395, -0.009285757318139076, 0.026171302422881126, 0.03644508868455887, 0.0300841573625803, 0.004687680397182703, 0.02859356626868248, -0.04084821417927742, 0.027006424963474274, -0.0009892164962366223, -0.004097766242921352, -0.0690130665898323, 0.008053562603890896, 0.02946384809911251, -0.009852536022663116, -0.008420596830546856, 0.08476424217224121, -0.04453227296471596, -0.009439211338758469, -0.007253375835716724, -0.036109939217567444, -0.051715120673179626, 0.06479226797819138, 0.057484474033117294, 0.0211022961884737, -0.031139876693487167, -0.02596314623951912, 0.0003563752106856555, 0.03581820800900459, 0.02800459787249565, -0.030269604176282883, 0.05740296468138695, 0.014636256732046604, 0.04035964608192444, -0.04146771505475044, 0.05767695978283882, 0.043560903519392014, 0.08094774186611176, -0.016557591035962105, 0.015270917676389217, 0.061921216547489166, 0.018283285200595856, 0.06344719976186752, -0.013752000406384468, 0.054055992513895035, -0.002638140693306923, -0.05263803154230118, 0.028315406292676926, -0.0433165617287159, 0.05250999331474304, 0.05904248356819153, -0.06915594637393951, -0.011749094352126122, -0.048199668526649475, -0.045983269810676575, -0.058657530695199966, -0.023837104439735413, -0.020692888647317886, -0.022179093211889267, -0.06573135405778885, -0.07882452011108398, -0.04023087024688721, -0.002193401101976633, -0.000969710003118962, 0.02158081717789173, -0.03441980853676796, 0.06434506922960281, 0.02520405873656273, 0.017261195927858353, 0.01053536031395197, 0.020980102941393852, -0.06357016414403915, 0.018115825951099396, 0.02878624014556408, -0.020260296761989594, 0.013794094324111938, -0.03865104541182518, -0.07448133081197739, 0.03924090787768364, 0.026761554181575775, -0.02629643864929676, 0.017306867986917496, 0.02805923856794834, 0.05428176373243332, 0.07743677496910095, -0.028213459998369217, 0.05989270657300949, 0.08161085098981857, -0.03902595117688179, -0.015150770545005798, 0.010984408669173717, -0.021980898454785347, -0.000465081975562498, -0.05723380297422409, -0.006648044101893902, -0.01377748791128397, -0.04219470173120499, -0.07534576207399368, 0.09154880791902542, -0.0041713956743478775, -0.025859126821160316, -0.03411377593874931, -0.06593972444534302, 0.06098604202270508, -0.02867015264928341, 0.011202070862054825, 0.06083555147051811, -0.008360686711966991, 0.05851032957434654, -0.01575564220547676, 0.02664540335536003, -0.0032170643098652363, 0.08140361309051514, 0.012896071188151836, 0.020991774275898933, 0.05198081582784653, -0.05016166716814041, -0.0035038385540246964, -0.06200422719120979, 0.0129287363961339, -0.01211665291339159, -0.017260538414120674, 0.004341702442616224, -0.07745224982500076, -0.021619562059640884, 0.015336203388869762, 0.01670936495065689, -0.06375879049301147, 0.0832042396068573, 0.009315730072557926, 0.01691092550754547, -0.01905585080385208, -0.04137623310089111, 0.03795238211750984, 0.025846127420663834, -0.030314069241285324, 0.03371887654066086, -0.006565870717167854, 0.0770217776298523, -0.014230608940124512, -0.06496398150920868, 0.014019370079040527, 0.028903409838676453, 0.011807587929069996, -0.005817175377160311, -0.06542664021253586, -0.015893880277872086, 0.02314887009561062, 0.006186388432979584, 0.004018152132630348, -0.027558239176869392, 0.003869434120133519, 0.029744023457169533, -0.06799933314323425, -0.009983370080590248, 0.04191751033067703, -0.043039482086896896, 0.07819869369268417, 0.03068568930029869, 0.0354636013507843, -0.0010722496081143618, -0.061155594885349274, 0.019229626283049583, 0.009996541775763035, -0.021859541535377502, -0.07838502526283264, -0.04703817889094353, 0.014370686374604702, 0.0060265082865953445, 0.001020120340399444, 0.00692456541582942, -0.022326944395899773, 0.013099449686706066, 0.027968168258666992, -0.05592402070760727, -0.07346928119659424, -0.027768732979893684, -0.047840625047683716, -0.060168322175741196, -0.09996647387742996, 0.08613599091768265, 0.0075354562141001225, -0.05654384195804596, 0.04326134920120239, 0.019585328176617622, -0.07936623692512512, -0.04886304587125778, -0.06240665167570114, 0.036944303661584854, -0.13470716774463654, 0.015553988516330719, 0.005916187539696693, -0.028586026281118393, 0.018935974687337875, 0.00720318453386426, 0.0017782108625397086, 0.02978917956352234, -0.09594693034887314, 0.031077047809958458, -0.07003513723611832, -0.024989619851112366, -0.028444644063711166, -0.05293066054582596, -0.0007527475827373564, -0.03153599426150322, 0.07529786974191666, 0.008372340351343155, 0.01964869350194931, 0.01107443030923605, 0.06197062507271767, 0.048724133521318436, -0.04504700005054474, 0.012461191043257713, -0.04761539772152901, 0.02924157679080963, -0.03821190074086189, 0.007625286001712084, -0.005762462504208088, -0.027683459222316742, 0.010279061272740364, 0.04996207728981972, -0.05299781262874603, -0.056996818631887436, 0.08206430822610855, -0.005039311479777098, 0.0700550302863121, -0.01958468370139599, -0.0191870778799057, -0.018145598471164703, -0.06162528321146965, -0.019938042387366295, 0.07967621833086014, 0.047331541776657104, -0.001999352127313614, -0.07319728285074234, -0.08347202837467194, -0.09364282339811325, -0.019648410379886627, -0.004796385765075684, 0.058068860322237015, 0.06168133392930031, 0.027087751775979996, 0.04778381064534187, 0.05281629413366318, -0.03794590011239052, -0.008949266746640205, -0.0002514568332117051, -0.04323021322488785, 0.01934405229985714, -0.03389458730816841, 0.03740811347961426, -0.01004840712994337, -0.032130058854818344, 0.005743243731558323, 0.01883501373231411, 0.024635788053274155, -0.0494769923388958, -0.03669214993715286, -0.06697706878185272, -0.058353766798973083, -0.03148069605231285, 0.11049185693264008, -0.00801656860858202, 0.04289453104138374, 0.012003669515252113, 0.023255379870533943, 0.04839780926704407, -0.033757686614990234, -0.02462032437324524, 0.034846965223550797, -0.06522324681282043, 0.036793287843465805, -0.024198276922106743, 0.020789828151464462, -0.0292584877461195, -0.000314085598802194, -0.016874879598617554, 0.011912777088582516, -0.030157150700688362, 0.05871274322271347, -0.007738870102912188, 0.02224273607134819, -0.009034167975187302, -0.06760747730731964, 0.02711881510913372, 0.013632181100547314, 0.020569635555148125, 0.04946618527173996, -0.00975485984236002, 0.021325092762708664, 0.014209541492164135, -0.02912452258169651, 0.01639094576239586, 0.015054800547659397, 0.06586755812168121, 0.0016134291654452682, -0.019851040095090866, 0.01467190682888031, -0.04401342198252678, -0.05296797305345535, 0.0003844498423859477, 0.05935428664088249, -0.006290155462920666, -0.023603489622473717, 0.08955250680446625, -0.09204776585102081, 0.039959173649549484, -0.03774739429354668, -0.0208098404109478, 0.010191081091761589, -0.04025556519627571, 0.03359685838222504, -0.020321564748883247, -0.06278999894857407, 0.024639876559376717, 0.08083625882863998, -0.003319841343909502, 0.03056364506483078, -0.003402355359867215, -0.04403335228562355, 0.029866209253668785, -0.0035890755243599415, -0.0005970464553683996, -0.023551607504487038, -0.022214680910110474, -0.02511005289852619, 0.08583977073431015, 0.06503590941429138, -0.056534506380558014, 0.011019020341336727, 0.046355921775102615, -0.01339454110711813, 0.024128353223204613, 0.07350941747426987, 0.01000967063009739, -0.06272239238023758, 0.01855848729610443, 0.048178598284721375, 0.12146593630313873, -0.04813959822058678, 0.06814788281917572, 0.050505202263593674, -0.009621158242225647, 0.02207283116877079, -0.03902123495936394, 0.08289201557636261, 0.02564990520477295, -0.034007396548986435, 0.06770722568035126, 0.008332646451890469, 0.046976663172245026, 0.007439849898219109, 0.054785292595624924, 0.02863139845430851, 0.0714690089225769, 0.04993889108300209, -0.02570355497300625, 0.024157846346497536, -0.023784130811691284, -0.04359109699726105, 0.01832890510559082, -0.06704602390527725, 0.04541897773742676, 0.059502311050891876, 0.000381029472919181, 0.039657194167375565, -0.02590751275420189, 0.018810344859957695, 0.06063823029398918, -0.035085007548332214, 0.00300962314940989, 0.03893996402621269, -0.005383813753724098, -0.011721477843821049, 0.02167031727731228, 0.05032315477728844, -0.01753057725727558, 0.01366056315600872, -0.020172864198684692, -0.030079936608672142, -0.032918594777584076, 0.019484849646687508, 0.010964968241751194, 0.033496204763650894, -0.026448598131537437, 0.008973992429673672, -0.011759281158447266, -0.015624314546585083, -0.022503100335597992, 0.009309191256761551, 0.004687497392296791, 0.01839587278664112, -0.002005534479394555, -0.05660489201545715, 0.05462173372507095, -0.04232197627425194, -0.017867956310510635, -0.035759322345256805, 0.04394260421395302, -0.0272897407412529, -0.011490629985928535, 0.09704124182462692, 0.008387881331145763, -0.010704447515308857, -0.008423039689660072, -0.02298257313668728, -0.004052973352372646, -0.03610333055257797, -0.01690181903541088, -0.042609356343746185, 0.05714021995663643, -0.039841312915086746, 0.11141546815633774, 0.009033472277224064, -0.001017397502437234, -0.031205231323838234, 0.09153783321380615, 0.08087340742349625, 0.006335033569484949, 0.09816256165504456, -0.009968230500817299, -0.026693977415561676, -0.02601674385368824, -0.019968261942267418, -0.020736197009682655, 0.007739515509456396, -0.05283072963356972, 0.005957427434623241, -0.004381187260150909, 0.006466637831181288, -0.0221099816262722, 0.0019369360525161028, 0.046119242906570435, 0.014122280292212963, 0.025672907009720802, 0.0038047332782298326, -0.03250069543719292, -0.0353565588593483, 0.037277668714523315, 0.02934497408568859, 0.04941360652446747, -0.05180636793375015, -0.05510135367512703, 0.03826787695288658, 0.027669813483953476, 0.04341748729348183, 0.04708890989422798, 0.0591694638133049, -0.002216953784227371, -0.029394209384918213, 0.0693214014172554, 0.022116295993328094, -0.0028904040809720755, 0.01764381304383278, -0.013484456576406956, 0.016021285206079483, -0.05336558818817139, 0.013348646461963654, -0.0038785627111792564, 0.017428208142518997, 0.00804835930466652, 0.00522261019796133, 0.0032665301114320755, -0.0076885707676410675, 0.003077285597100854, 0.01861145906150341, -0.058972883969545364, 0.010843309573829174, -0.020038442686200142, -0.012289435602724552, -0.007466541603207588, -0.002724137855693698, -0.0093777971342206, -0.014595977030694485, 0.02996610663831234, -0.01022184919565916, -0.023518823087215424, -0.006109005771577358, -0.028707480058073997, -0.016232624650001526, 0.036013733595609665, -0.08019193261861801, 0.030187979340553284, 0.0027808798477053642, 0.011042953468859196, -0.014118397608399391, 0.01218411698937416, 0.035711489617824554, -0.0056619467213749886, 0.08447457104921341, -0.05551333352923393, -0.002910173963755369, -0.03596969321370125, 0.02055422030389309, -0.015282792039215565, 0.017456522211432457, -0.09615182876586914, -0.021683527156710625, -0.010786273516714573, -0.021461382508277893, 0.04918082058429718, -0.004268665798008442, -0.022782910615205765, 0.013373377732932568, 0.001469360082410276, -0.06007472798228264, -0.06961259245872498, -0.04908476397395134, 0.05410024896264076, -0.024131005629897118, -0.002533858409151435, -0.017520448192954063, 0.006180834956467152, 0.012086118571460247, -0.01634564995765686, -0.005409212317317724, 0.025760043412446976, -0.03340323269367218, 0.04677401855587959, 0.003908611834049225, -0.0188364889472723, 0.01266167126595974, -0.0005984225426800549, -0.06939533352851868, -0.09731876105070114, -0.034264493733644485, 0.0177738256752491, 0.007211849559098482, 0.03440849855542183, 0.07800167798995972, 0.09398429095745087, -0.06150144338607788, 0.04126819223165512, -0.004531537648290396, 0.006714246701449156, 0.006526982877403498, -0.007522578351199627, -0.0017303748754784465, 0.045072607696056366, 0.012443340383470058, 0.03630463778972626, 0.018830593675374985, -0.01860830746591091, -0.11290963739156723, 0.04497542232275009, 0.04559602960944176, 0.0048067932948470116, 0.07057028263807297, -0.04160914197564125, -0.01316103059798479, 0.05372780188918114, -0.017643501982092857, 0.06410335749387741, -0.04114670306444168, 0.011888173408806324, 0.044915247708559036, 0.02434922195971012, 0.04033627733588219, -0.04669886827468872, -0.039802175015211105, 0.007046835962682962, 0.0038388550747185946, -0.11403249204158783, -0.06172497197985649, 0.04470374435186386, -0.020297657698392868, 0.08455518633127213, 0.06642711162567139, -0.058859579265117645, 0.03164802864193916, -0.00037718427483923733, 0.0013632426271215081, 0.009739386849105358, 0.04786243662238121, 0.0013129191938787699, -0.024227896705269814, 0.007293213624507189, 0.09309789538383484, 0.0032875279430299997, -0.04024207964539528, -0.01838153973221779, -0.05145791172981262, 0.05837913602590561, -0.0072333295829594135, -0.03888732194900513, -0.018702497705817223, -0.02692238613963127, 0.09922178834676743, -0.0599590428173542, 0.05093056336045265, -0.08038945496082306, 0.028348151594400406, 0.011050357483327389, 0.00341978226788342, -0.010289852507412434, -0.04436269402503967, 0.0013998495414853096, 0.08313285559415817, -0.03383536636829376, -0.026442810893058777, -0.029176080599427223, 0.027292121201753616, 0.011324753053486347, -0.03373246639966965, -0.04114916920661926, -0.005739190615713596, 0.012726507149636745, -0.01116173341870308, -0.014061905443668365, 0.011979177594184875, 0.014631624333560467, -0.005148356314748526, -0.009605858474969864, -0.05803896114230156, -0.03478822857141495, 0.02146325632929802, -0.025904111564159393, -0.046376366168260574, -0.008187290281057358, 0.022937944158911705, -0.010583904571831226, 0.02703402377665043, 0.006574766710400581, 0.05103064328432083, -0.0020933945197612047, 0.010630100965499878, -0.030632872134447098, -0.07632776349782944, 0.028275730088353157, 0.004370672628283501, 0.006363502237945795, -0.03689566254615784, 0.0128746647387743, 0.006339555140584707, -0.015034765005111694, 0.06548646837472916, 0.003860283177345991, -0.02338404394686222, 0.020926110446453094, -0.012729293666779995, 0.025821933522820473, 0.024606578052043915, 0.01530336681753397, -0.044782157987356186, 0.017638547345995903, 0.004285122733563185, -0.001096174935810268, 0.0079198544844985, -0.03394666314125061, -0.019506391137838364, 0.031078826636075974, 0.016432883217930794, -0.03236625716090202, 0.07385169714689255, -0.07996350526809692, 0.06672105193138123, -0.11508151888847351, 0.013320972211658955, -0.01253523863852024, 0.06796712428331375, -0.05284931883215904, -0.007729966193437576, 0.025570940226316452, 0.0063330442644655704, 0.0014668386429548264, 0.014803210273385048, -0.02426079660654068, 0.011255134828388691, -0.01409740000963211, 0.022343138232827187, 0.023771610110998154, 0.03183271735906601, -0.005845437292009592, -0.05224677547812462, -0.034192219376564026, -0.013986047357320786, 0.04054450988769531, -0.022273745387792587, -0.029841361567378044, 0.0058614411391317844, -0.013259059749543667, 0.06409616023302078, -0.04733952507376671, -0.03922511637210846, -0.026328641921281815, 0.023999804630875587, 0.05371252819895744, 0.06271592527627945, 0.02886873669922352, 0.015863381326198578, -0.04359574243426323, 0.04951433092355728, 0.0007628222811035812, -0.011639481410384178, 0.031932808458805084, -0.015520523302257061, -0.008832783438265324, -0.0359857939183712, -0.003126922296360135, -0.03034641407430172, -0.051746971905231476, -0.026636047288775444, -0.05446154624223709, 0.028516262769699097, 0.08550788462162018, -0.02232343703508377, -0.02602224424481392, 0.035822544246912, -0.0011582713341340423, -0.00253257155418396, 0.05500098317861557, 0.07273511588573456, 0.009112218394875526, -0.04963626340031624, -0.0375019796192646, -0.05081435292959213, -0.024028407409787178, -0.04988368973135948, -0.012511265464127064, 0.07301005721092224, 0.010781987570226192, -0.034099455922842026, -0.06628566980361938, 0.061508603394031525, 0.022051189094781876, -0.014235307462513447, 0.0007671277853660285, -0.03945039585232735, 0.05732424929738045, -0.0038500118535012007, -0.05629286915063858, 0.05305924266576767, 0.058398377150297165, -0.030916064977645874, -0.04724102094769478, 0.0576760396361351, -0.004029488191008568, -0.0029870211146771908, -0.08277104794979095, 0.0534643828868866, 0.07249844074249268, 0.06307787448167801, -0.05559191480278969, 0.035518236458301544, 0.011415249668061733, -0.013919210061430931, 0.03620609641075134, 0.057182759046554565, 0.03927901014685631, -0.01318211480975151, -0.03251922130584717, -0.006066801492124796, 0.02293415740132332, 0.03877687454223633, -0.05815418064594269, 0.0001815116556826979, -0.008427434600889683, -0.05254833400249481, -0.010714996606111526, 0.0035747503861784935, 0.028366999700665474, 0.015240428037941456, -0.004532159306108952, 0.011011089198291302, -0.0006924487533979118, 0.10245471447706223, 0.013801759108901024, -0.013842129148542881, 0.023790527135133743, 0.03879082575440407, 0.0022792736999690533, 0.047940149903297424, 0.02365919016301632, 0.01344613078981638, -0.03178330138325691, 0.041221801191568375, 0.035653937608003616, 0.01581376977264881, -0.009751887992024422, -0.062118049710989, -0.007513327058404684, 0.03659310191869736, -0.026850873604416847, 0.05320151150226593, 0.021787350997328758, 0.0031695563811808825, -0.010865360498428345, -0.045813631266355515, 0.0225504320114851, -0.052910663187503815, 0.013251847587525845, 0.06644801050424576, 0.013219362124800682, 0.038997162133455276, 0.0456966757774353, -0.054571472108364105, 0.02834748849272728, -0.10143008083105087, -0.02284618280827999, 0.0650293305516243, -0.06399336457252502, 0.022262204438447952, 0.04949644207954407, 0.06710950285196304, 0.05604897066950798, 0.04958966374397278, 0.035826247185468674, 0.02630394697189331, 0.0328897088766098, 0.025073561817407608, -0.005091734230518341, 0.059063393622636795, -0.011619292199611664, -0.05557617172598839, 0.08306016772985458, -0.008443561382591724, -0.02076616697013378, 0.00805783923715353, 0.01741434819996357, 0.031074292957782745, 0.028693994507193565, -0.046207576990127563, -0.02150881662964821, 0.00046580980415455997, 0.06103230640292168, -0.046887416392564774, 0.05582640320062637, 0.03004937618970871, 0.006186258513480425, 0.06938128918409348, -0.007665881421416998, -0.01161008421331644, 0.07799968868494034, -0.022730685770511627, -0.002846532966941595, 0.08444174379110336, 0.033497631549835205, 0.026441015303134918, -0.0070500243455171585, -0.015543371438980103, 0.032121043652296066, 0.013314766809344292, -0.04657704383134842, 0.0489078089594841, -0.07838059961795807, 0.0006602427456527948, 0.01589750498533249, 0.017548661679029465, -0.0140762934461236, -0.09626302868127823, -0.0011776291066780686, -0.04860323294997215, 0.012086491100490093, 0.01827859878540039, -0.029513852670788765, 0.07063274830579758, -0.012164675630629063, -0.06616763770580292, -0.055155642330646515, 0.04012535512447357, -0.03946883603930473, 0.03210616111755371, 0.000770347542129457, 0.03240134194493294, -0.05347522720694542, -0.05989867076277733, 0.0666414275765419, 0.0032901030499488115, 0.011360196396708488, -0.04303258657455444, 0.049132898449897766, 0.02081012725830078, -0.0163962934166193, 0.008155697956681252, 0.031166506931185722, -0.04449351504445076, 0.04518180713057518, -0.06710252910852432, -0.0073667061515152454, -0.020751455798745155, -0.0033353036269545555, -0.01028499286621809, -0.08327999711036682, 0.05112220346927643, -0.005117360036820173, 0.059265006333589554, 0.023462073877453804, 0.040655042976140976, -0.03264247253537178, -0.04281611368060112, -0.014879741705954075, -0.06535645574331284, -0.01428480539470911, 0.016802571713924408, 0.028764838352799416, 0.026601430028676987, 0.032185595482587814, -0.03512168675661087, 0.006134155672043562, 0.015564442612230778, -0.12323365360498428, 0.04687518998980522, -0.025136824697256088, 0.04588013514876366, -0.0687020868062973, 0.02918194606900215, -0.05942250415682793, 0.009967643767595291, 0.017542541027069092, -0.010110164061188698, 0.002666676416993141, 0.059336721897125244, 0.059876713901758194, -0.0006419129786081612, 4.701116995420307e-05, 0.006050325930118561, -0.012397753074765205, 0.03998725488781929, 0.03021320328116417, -0.03502272814512253, 0.048725295811891556, -0.06848854571580887, -0.004155235830694437, 0.02009490318596363, -0.0649794191122055, -0.06220528110861778, 0.009020837023854256, -0.04438798129558563, 0.007359491195529699, 0.03196054324507713, 0.05516369268298149, 0.053551457822322845, 0.06754439324140549, 0.01682722195982933, -0.049027565866708755, -0.00041666559991426766, -0.03217561915516853, -0.03311629593372345, 0.0006027917261235416, 0.009048446081578732, 0.019182421267032623, -0.10913972556591034, 0.08222577720880508, -0.043777596205472946, -0.020977269858121872, 0.0010190452449023724, 0.020411087200045586, -0.04344496130943298, -0.03003976121544838, 0.07428819686174393, -0.0012996308505535126, -0.023211000487208366, 0.02529696375131607, -0.03304310515522957, 0.017987916246056557, -0.06839771568775177, -0.020984772592782974, 0.04861699417233467, 0.024828800931572914, 0.015803052112460136, -0.0008255070424638689, -0.03548864647746086, -0.018885059282183647, 0.03918756544589996, 0.021985024213790894, 0.011398275382816792, -0.049633052200078964, -0.0787779912352562, -0.0908045619726181, -0.04352325201034546, -0.007060711272060871, 0.013023672625422478, 0.05446946248412132, 0.08677030354738235, -0.036837007850408554, -0.050690196454524994, 0.07967248558998108, 0.0071004945784807205, 0.0011445465497672558, 0.051525864750146866, -0.03528600558638573, 0.02079656533896923, 0.022306174039840698, 0.04553677514195442, 0.012333745136857033, 0.007624427322298288, 0.05514559522271156, 0.08587963879108429, -0.012956957332789898, -0.034311290830373764, 0.011269964277744293, 0.051553547382354736, -0.034599460661411285, 0.025041595101356506, 0.008306941948831081, 0.03204559162259102, 0.027550779283046722, 0.03654245287179947, 0.04665626958012581, 0.07473903894424438, 0.05223163962364197, 0.04138154909014702, 0.031621817499399185, -0.023208964616060257, -0.011288479901850224, -0.046988941729068756, 0.004757443442940712, -0.06404232978820801, 0.050410714000463486, 0.014932140707969666, 0.04962063953280449, -0.04635388404130936, 0.05263251066207886, -0.008318440057337284, -0.005748291499912739, 0.05025079473853111, -0.04087429121136665, 0.015309354290366173, 0.041588254272937775, -0.018386656418442726, 0.029682809486985207, 0.001985276350751519, 0.0028366486076265574, 0.022755537182092667, -0.06952055543661118, 0.03335834667086601, -0.012203870341181755, -0.02355629950761795, 0.006910001393407583, -0.00024526877677999437, 0.0009075836860574782, 0.04047956317663193, -0.043545857071876526, -0.06368954479694366, 0.05121549218893051, -0.028812043368816376, 0.01926618441939354, -0.003027654252946377, -0.019155338406562805, -0.00765949347987771, 0.0795571357011795, -0.0497865229845047, 0.07699080556631088, 0.008339382708072662, -0.0506087951362133, -0.04124942049384117, 0.01632409542798996, 0.06649526953697205, 0.01719224825501442, 0.02491454966366291, 0.01583162136375904, -0.03272031992673874, 0.05517960339784622, 0.04663330689072609, -0.017144981771707535, -0.02181079611182213, 0.00804199930280447, 0.09702853113412857, -0.04574084281921387, 0.04226501286029816, 0.07301926612854004, 0.03198458254337311, 0.028940249234437943, 0.017117483541369438, 0.015457521192729473, -0.03280407562851906, 0.00914060603827238, 0.01928252913057804, -0.04700198024511337, 0.0034373656380921602, 6.853565719211474e-05, 0.030483974143862724, -0.03297707810997963, 0.0006710870075039566, 0.023017462342977524, 0.060907889157533646, -0.022211922332644463, -0.03676171228289604, 0.002071127761155367, -0.00013678598043043166, -0.03359586372971535, 0.031745873391628265, -0.02367904596030712, 0.03662277013063431, -0.1149529218673706, 0.019791999831795692, 0.007213301490992308, -0.028241625055670738, 0.025079168379306793, -0.008703879080712795, 0.08509629964828491, 0.027447663247585297, 0.016658134758472443, -0.00508893933147192, -0.03581957519054413, 0.04183635115623474, -0.029820695519447327, -0.03581199795007706, -0.04493725672364235, -0.008442833088338375, -2.6274679839843884e-05, 0.0048771630972623825, 0.02419494278728962, 0.009990015998482704, 0.05264371261000633, 0.02100095897912979, 0.0013224480208009481, -0.024543169885873795, 0.014227768406271935, 0.03497922793030739, 0.0028883160557597876, -0.06487444043159485, -0.06761680543422699, -0.014097694307565689, -0.008345834910869598, -0.002237878507003188, 0.0030351700261235237, -0.06468935310840607, -0.04789905622601509, 0.0634213536977768, 0.0347055122256279, -0.01810709945857525, -0.0018918284913524985, 0.016633490100502968, -0.01608925871551037, -0.10038632899522781, 0.037661898881196976, -0.04275257885456085, 0.04873984679579735, 0.040636368095874786, -0.03998277708888054, 0.0014658084837719798, -0.06392621994018555, 0.06670624017715454, -0.013890880160033703, 0.04433618485927582, -0.02248460426926613, -0.05057908967137337, -0.03241988644003868, -0.054184671491384506, 0.0033298826310783625, -0.0583576001226902, 0.025814976543188095, -0.07510192692279816, -0.02507411688566208, 0.06826480478048325, -0.04662145674228668, 0.019423233345150948, -0.05166654661297798, -0.0026623529847711325, 0.020163659006357193, -0.0515546053647995, 0.03221047297120094, 0.03459177166223526, -0.039760611951351166, 0.009360404685139656, 0.005984731018543243, -0.026899758726358414, 0.015854360535740852, -0.0016216913936659694, -0.03575326129794121, -0.01524946466088295, 0.008802390657365322, -0.015170607715845108, 0.0032963245175778866, -0.058363575488328934, -0.08093921840190887, -0.0027129303198307753, 0.013075383380055428, -0.05570777505636215, -0.018831809982657433, -0.018544679507613182, 0.016465237364172935, -0.0034298566170036793, 0.04695809260010719, -0.0019607837311923504, -0.021753454580903053, 0.05419843643903732, 0.0016715554520487785, -0.023588895797729492, -0.029362237080931664, -0.06409138441085815, 0.02900245040655136, -0.01892736367881298, 0.030075905844569206, -0.017782481387257576, -0.010098855942487717, 0.02148420549929142, -0.002501516602933407, 0.028077425435185432, 0.04166298359632492, 0.03359612822532654, -0.003012551460415125, 0.08233959972858429, -0.053914740681648254, -0.02268202044069767, 0.042203016579151154, -0.04249298945069313, -0.05596756190061569, 0.07316416501998901, -0.028924955055117607, -0.03547093644738197, 0.06994133442640305, 0.12426459044218063, -0.00911519955843687, 0.0236355047672987, 0.0007017244934104383, -0.03641688451170921, 0.01850566826760769, -0.012420623563230038, 0.03728892654180527, -0.05514582246541977, 0.05567079037427902, 0.022441605105996132, -0.04426903650164604, -0.013213724829256535, 0.0572785846889019, -0.02699613943696022, 0.01528074312955141, 0.05268510431051254, -0.08144304901361465, -0.04691927134990692, 0.04408114030957222, -2.3913436962175183e-05, 0.034678973257541656, -0.06376606971025467, 0.03575640544295311, -0.03250763192772865, -0.01781720481812954, 0.006639792118221521, -0.0015333493938669562, 0.050714582204818726, 0.032812539488077164, 0.05123892426490784, 0.058577779680490494, -0.06047429144382477, -0.005539788864552975, -0.01147028710693121, -0.02392825484275818, 0.022054005414247513, -0.04142595827579498, -0.031219864264130592, -0.018214954063296318, 0.005745499860495329, 0.03463844209909439, 0.01428328175097704, 0.014709530398249626, -0.046857427805662155, 0.02605675533413887, 0.0029955990612506866, 0.005368606187403202, -0.0694727972149849, 0.003828679211437702, -0.06447665393352509, -0.04245660454034805, 0.011401551775634289, -0.00016785117622930557, -0.03673630952835083, 0.018568219617009163, 0.013384011574089527, -0.057240601629018784, -0.03381690755486488, 0.008930624462664127, 0.03388436883687973, 0.013007858768105507, 0.014691373333334923, -0.025819452479481697, -0.08248874545097351, 0.04690839722752571, -0.014496573247015476, 0.05763639882206917, 0.04351196438074112, 0.012141885235905647, -0.01099663320928812, -0.008609609678387642, 0.092172771692276, 0.016406377777457237, -0.010209728963673115, 0.027223501354455948, 0.005978034809231758, 0.04427020251750946, 0.007631759624928236, -0.004762965254485607, 0.01428734790533781, 0.014406763948500156, -0.05986243113875389, -0.0632924810051918, -0.004715501330792904, -0.023756003007292747, -0.05671846494078636, 0.005996975582093, -0.03731453791260719, 0.0650584027171135, 0.021938752382993698, 0.022502299398183823, 0.0024553367402404547, -0.0786302238702774, 0.027805374935269356, 0.09238747507333755, -7.625768921570852e-05, -0.008949914015829563, 0.011348653584718704, -0.0350298173725605, -0.02670559473335743, 0.031488560140132904, 0.02137371152639389, 0.045769285410642624, 0.035117361694574356, 0.08167201280593872, -0.04520311951637268, -0.017298204824328423, 0.008958795107901096, -0.012292550876736641, 0.020691614598035812, -0.014448012225329876, -0.016517484560608864, 0.05049020051956177, 0.024991264566779137, 0.07239088416099548, -0.09824572503566742, -0.12017759680747986, -0.0012115086428821087, -0.07401803880929947, 0.040462493896484375, -0.04197222366929054, -0.043024010956287384, 0.00046677407226525247, -0.03459165617823601, 0.03575398027896881, -0.024648752063512802, -0.028929367661476135, -0.01184636726975441, -0.04162425175309181, -0.07237894833087921, 0.021915385499596596, 0.02093571610748768, -0.05297581106424332, 0.014435134828090668, -0.02097277343273163, -0.023010114207863808, 0.03331081196665764, -0.018703103065490723, -0.031075555831193924, 0.00512189045548439, -0.03287522494792938, 0.017116202041506767, 0.017556190490722656, 0.05819299817085266, -0.06273112446069717, 0.0013172326143831015, -0.06465873122215271, -0.00010510440915822983, 0.005084581673145294, 0.0553339421749115, 0.011287497356534004, 0.014692582190036774, -0.038355521857738495, 0.003650502534583211, 0.007890228182077408, -0.03364903852343559, -0.05192529037594795, -0.01768217608332634, 0.02240409143269062, 0.036433059722185135, -0.03445512056350708, 0.01471630111336708, -0.016624797135591507, 0.0020771538838744164, -0.04035548120737076, 0.002022928325459361, 0.049848590046167374, -0.006976801436394453, 0.024283966049551964, 0.025738772004842758, -0.047635503113269806, -0.01151647325605154, 0.013077577576041222, -0.013427674770355225, 0.033999402076005936, -0.06612260639667511, 0.01402923371642828, 0.0019907206296920776, 0.023476241156458855, 0.035783037543296814, -0.032980479300022125, 0.01505041029304266, -0.011783863417804241, -0.0005346643156372011, -0.030191032215952873, -0.00844888761639595, -0.03734404221177101, -0.007753079757094383, 0.00817179773002863, 0.0033695625606924295, 0.028088245540857315, 0.019218143075704575, 0.006083267275243998, 0.022951053455471992, 0.012182004749774933, -0.07626740634441376, -0.002687399508431554, -0.07878022640943527, -0.017820216715335846, 0.03959321230649948, -0.027184180915355682, -0.030791262164711952, -0.0030820032116025686, 0.02672964707016945, -0.019493812695145607, 0.04703773558139801, -0.0785752460360527, -0.020197879523038864, 0.027841785922646523, 0.07724885642528534, 0.07971294969320297, -0.011846039444208145, -0.07855957746505737, -0.0036086076870560646, 0.01818816177546978, -0.09358139336109161, -0.04445561021566391, 0.02670186012983322, -0.01590806618332863, 0.04057642072439194, 0.057939380407333374, 0.014061339199543, -0.022292058914899826, -0.006200253497809172, 0.04515095055103302, -0.0272823553532362, 0.03212453052401543, 0.08936703950166702, -0.035557132214307785, 0.0264693982899189, 0.02135995775461197, -0.015551833435893059, -0.01711273193359375, 0.08913928270339966, -0.0054739657789468765, -0.03609653562307358, -0.021772420033812523, -0.03710545226931572, 0.05441989004611969, -0.03726498782634735, -0.10431550443172455, 0.02371891215443611, 0.013932555913925171, 0.02147580124437809, -0.016996530815958977, -0.024982677772641182, -0.0057301996275782585, -0.0013373947003856301, 0.041963089257478714, 0.02254609577357769, -0.005762680433690548, -0.03855638578534126, -0.042729124426841736, 0.034623224288225174, -0.008848615922033787, -0.03889952972531319, -0.02656763419508934, 0.015526819974184036, -0.028543993830680847, -0.012238522060215473, 0.037484653294086456, -0.046408526599407196, -0.03329819068312645, 0.0051727378740906715, -0.015208530239760876, 0.028399311006069183, 0.036336299031972885, -0.012992247939109802, -0.028153855353593826, -0.024524088948965073, 0.016162823885679245, -0.07280293852090836, 0.07214856892824173, 0.01973487250506878, 0.009838894009590149, 0.05485209450125694, 0.018531620502471924, 0.11327733099460602, -0.028976820409297943, -0.004918116144835949, -0.05319049954414368, -0.012830282561480999, -0.0008795908070169389, -0.021581899374723434, 0.0600111186504364, -0.06910493224859238, -0.03625579550862312, -0.06380855292081833, -0.002460205228999257, -0.06309501081705093, 0.036272674798965454, -0.021587908267974854, -0.032346464693546295, -0.0540524497628212, -0.006209001410752535, -0.0033659180626273155, 0.059706661850214005, 0.027660280466079712, 0.011372039094567299, -0.03437929227948189, 0.014508776366710663, -0.017432715743780136, 0.035105012357234955, -0.025062691420316696, 0.01900077983736992, -0.06219742074608803, -0.04664457589387894, 0.06371470540761948, -0.0293046273291111, 0.06806649267673492, 0.029468083754181862, -0.015102063305675983, -0.0026072589680552483, 0.02925039827823639, 0.009244345128536224, 0.08080941438674927, 0.026982035487890244, 0.0631517544388771, -0.030613265931606293, -0.011399539187550545, 0.0605948306620121, 0.002392734633758664, -0.0012707100249826908, 0.06991782784461975, -0.020084543153643608, 0.017496339976787567, -0.002641590079292655, 0.005815674085170031, 0.048174742609262466, 0.022442597895860672, -0.0138887669891119, 0.022014476358890533, 0.012454603798687458, 0.06830976158380508, -0.020033666864037514, 0.019870255142450333, 0.0003347120073158294, -0.0034462749026715755, 0.06917153298854828, 0.0725243017077446, 0.01880403235554695, -0.0026594025548547506, 0.0010611900361254811, 0.013439188711345196, -0.00217088358476758, 0.06568699330091476, -0.04169002175331116, -0.05420592054724693, -0.0017670398810878396, 0.035441067069768906, -0.03542632237076759, -0.051005199551582336, 0.05115412175655365, 0.05979321897029877, 0.006662112195044756, -0.01478649489581585, 0.016784461215138435, 0.05747518315911293, -0.027269752696156502, -0.006934573873877525, 0.05961606279015541, -0.003419517306610942, 0.057165492326021194, -0.007545007858425379, -0.013835231773555279, 0.04460925608873367, 0.0027941556181758642, 0.0018199352780357003, -0.06159379333257675, 0.031279902905225754, -0.07440745830535889, -0.04702712595462799, 0.06149055436253548, 0.024705300107598305, -0.004166483413428068, -0.10230173170566559, 0.05454213544726372, 0.04739915207028389, -0.008291419595479965, 0.054692111909389496, -0.027486765757203102, -0.07134243100881577, 0.055274561047554016, -0.027848875150084496, 0.06802220642566681, 0.026146892458200455, 0.04617965593934059, -0.02809136174619198, -0.07787604629993439, 0.08102039992809296, 0.09520643204450607, 0.0819220170378685, 0.0005388229619711637, 0.023396432399749756, 0.10409782081842422, 0.027571793645620346, -0.02616402693092823, -0.05869809538125992, 0.005425166338682175, -0.02028920128941536, -0.09463676065206528, -0.023592812940478325, 0.026139967143535614, -0.004280884750187397, -0.053186800330877304, -0.0557103231549263, 0.044044580310583115, 0.006466294638812542, 0.04020093008875847, 0.0262520182877779, 0.021491963416337967, -0.012934130616486073, 0.07437402755022049, -0.05849332734942436, -0.036241959780454636, 0.049977272748947144, 0.015089156106114388, 0.0038837005849927664, 0.04825792834162712, 0.013811021111905575, 0.06491002440452576, -0.025952905416488647, -0.016279468312859535, 0.017169615253806114, 0.009439311921596527, 0.03717854246497154, 0.04217904806137085, -0.0400780513882637, 0.025883043184876442, -0.07988584041595459, 0.009281626902520657, 0.013249963521957397, -0.004832301754504442, 0.013332470320165157, -0.09349791705608368, 0.054901786148548126, 0.07676228135824203, -0.08885838091373444, 0.007660984061658382, -0.06711124628782272, -0.025297382846474648, 0.023171277716755867, -0.0001511950249550864, 0.021007126197218895, 0.055178120732307434, -0.12086154520511627, -0.08311864733695984, -0.013528154231607914, 0.06563862413167953, -0.034073907881975174, 0.02313263714313507, -0.03981064260005951, -0.030535710975527763, 0.015287273563444614, -0.0053767254576087, 0.01708247698843479, -0.05353793129324913, 0.01889668218791485, -0.024604637175798416, 0.03090931661427021, 0.011508150026202202, -0.028778597712516785, 0.010541796684265137, 0.04088350385427475, -0.00861694011837244, -0.030518393963575363, -0.019408727064728737, 0.040800198912620544, -0.013869380578398705, -0.01052924059331417, 0.008868377655744553, 0.03967583552002907, 0.08385009318590164, 0.0071825021877884865, 0.007628750987350941, 0.052837781608104706, 0.045974329113960266, 0.002943510189652443, 0.009671294130384922, -0.032284896820783615, 0.048627592623233795, -0.05292316898703575, 0.039440274238586426, -0.0015817267121747136, -0.05914026126265526, 0.01440477091819048, -0.012469610199332237, 0.04210760071873665, -0.0493038035929203, 0.022377856075763702, 0.09962014108896255, 3.6634937714552507e-06, 0.01983913965523243, 0.05036252364516258, -0.011867418885231018, -0.06390199810266495, -0.05455474555492401, -0.05661635473370552, -0.025708943605422974, 0.04332564026117325, 0.018355470150709152, -0.06286558508872986, 0.022198336198925972, 0.03514032065868378, 0.028725294396281242, 0.01779191754758358, 0.025790859013795853, 0.06250929832458496, -0.0675051361322403, -0.030136065557599068, 0.0033624034840613604, -0.024746157228946686, 0.06321311742067337, 0.011953538283705711, -0.0018146532820537686, -0.00748059805482626, 0.00954735279083252, 0.015352785587310791, -0.023515747860074043, -0.0034289767500013113, 0.03935316950082779, 0.03782344609498978, -0.020443908870220184, 0.0061888862401247025, 0.10026808828115463, -0.015200182795524597, 0.03625347837805748, -0.0012737098149955273, -0.06015408784151077, 0.043051838874816895, 0.015176982618868351, 0.024570146575570107, 0.05005909129977226, 0.015714183449745178, -0.03856900334358215, -0.007457911968231201, -0.002612821292132139, -0.00532934395596385, 0.006708822213113308, -0.015057598240673542, 0.11390640586614609, -0.026517191901803017, -0.0007974869222380221, -0.006563346367329359, -0.01252446323633194, -0.010122356005012989, 0.015227613970637321, -0.07133667916059494, -0.03798240050673485, 0.044156938791275024, -0.03261550888419151, 0.0745692253112793, 0.06545019149780273, 0.05437431111931801, -0.053843285888433456, 0.014625920914113522, 0.014750253409147263, -0.03864501789212227, 0.002301746979355812, 0.0009780331747606397, 0.02679716795682907, 0.0197833813726902, -0.011254556477069855, -0.024047426879405975, 0.04294905439019203, 0.0643378421664238, -0.03579850494861603, 0.022648880258202553, -0.05829888582229614, -0.053666602820158005, -0.032662224024534225, 0.07591032236814499, -0.006862537935376167, -0.068107470870018, -0.023512259125709534, -0.06772243976593018, 0.09660946577787399, -0.003895132103934884, 0.02912038564682007, 0.06698937714099884, 0.009658095426857471, 0.005846192594617605, -0.02108900249004364, 0.002728181192651391, 0.011504500173032284, 0.018011366948485374, -0.023076940327882767, -0.016358841210603714, 0.052872925996780396, 0.031185247004032135, -0.039459675550460815, 0.009647860191762447, -0.057061806321144104, 0.0005100291455164552, -0.0015924847684800625, 0.0666927769780159, 0.016967186704277992, 0.03692113608121872, 0.010666155256330967, -0.011498803272843361, 0.06205418333411217, 0.05694049969315529, -0.06033330038189888, 0.011903822422027588, 0.024954160675406456, -0.014706376008689404, 0.01855628937482834, 0.02981695346534252, -0.05317526310682297, -0.03757055103778839, 0.06571386754512787, -0.06677135080099106, -0.005952381994575262, -0.052025165408849716, 0.0615445114672184, 0.005788118112832308, 0.03517986088991165, 0.024953752756118774, 0.04063435271382332, 0.05358818545937538, 0.009215105324983597, 0.00871399138122797, 0.025207707658410072, 0.0015036447439342737, -0.11341232806444168, -0.03923681378364563, 0.08939903974533081, -0.014538450166583061, -0.07988444715738297, 0.011604828760027885, 0.018999934196472168, -0.029680291190743446, -0.023956380784511566, 0.017142403870821, -0.000926582608371973, -0.03781984746456146, -0.007255932316184044, -0.03265004977583885, 0.07172775268554688, -0.011614220216870308, -0.02256671153008938, 0.050980567932128906, -0.04408250004053116, 0.024176249280571938, 0.020695865154266357, 0.0686798095703125, -0.011155067011713982, -0.042561888694763184, 0.05465046688914299, -0.007280346471816301, 0.022889720275998116, 0.010767766274511814, 0.04034235700964928, 0.048083171248435974, 0.035424020141363144, -0.05631915479898453, -0.035634350031614304, -0.08683142811059952, 0.04036104306578636, -0.040171924978494644, -0.009606022387742996, 0.008716602809727192, 0.006934107281267643, 0.07505406439304352, -0.021293262019753456, 0.05140000954270363, -0.031149359419941902, -0.03278648480772972, 0.0021783821284770966, -0.06560666859149933, -0.04491462558507919, 0.014262448064982891, 0.015116908587515354, -0.06834965944290161, -0.007027425337582827, -0.02761669270694256, -0.05310183763504028, -0.012307427823543549, 0.08972351998090744, -0.017862139269709587, -0.0149976946413517, -0.020511846989393234, 0.031037192791700363, 0.013351812027394772, 0.04641745239496231, -0.04288240522146225, -0.013149191625416279, 0.060509614646434784, -0.01853138580918312, -0.01917177625000477, 0.028456201776862144, 0.02034084126353264, 0.009491565637290478, -0.0470188669860363, 0.09543107450008392, 0.05733167380094528, -0.01935788430273533, 0.012913926504552364, -0.010974723845720291, -0.0907118022441864, -0.02415340207517147, 0.03957844898104668, 0.0065984223037958145, -0.0044968463480472565, -0.029065944254398346, 0.019474007189273834, -0.017727626487612724, -0.04371485486626625, 0.003237437689676881, 0.054204829037189484, -0.016293801367282867, 0.006391151342540979, -0.043199487030506134, 0.05923031270503998, 0.046098414808511734, 0.011413074098527431, 0.0045447866432368755, 0.04629356786608696, 0.014021201990544796, -0.04257306456565857, 0.019804706797003746, -0.015806417912244797, 0.06941910833120346, -0.044344834983348846, -0.041728425770998, 0.049396809190511703, -0.02509199269115925, -0.031540997326374054, -0.051027312874794006, -0.0017302576452493668, -0.01737229898571968, 0.05416933447122574, 0.042311135679483414, 0.03037155792117119, -0.0016680732369422913, -0.02977544255554676, 0.026022635400295258, -0.055952999740839005, 0.014632701873779297, -0.04274393990635872, 0.00491600576788187, -0.0910971462726593, 0.025207048282027245, 0.08216880261898041, -0.011736379936337471, 0.09452434629201889, 1.237690321431728e-05, 0.002858145860955119, 0.04145261272788048, -0.056392960250377655, 0.0566115602850914, -0.024389714002609253, 0.009190714918076992, -0.009991738945245743, -0.01874668337404728, -0.014693713746964931, 0.03415288031101227, 0.037045493721961975, 0.03558412939310074, -0.005584230180829763, 0.026150567457079887, 0.06609826534986496, -0.01184068713337183, 0.008194977417588234, 0.0205756314098835, -0.040553782135248184, -0.0272281002253294, -0.016423510387539864, -0.005841415375471115, -0.002985592931509018, -0.03776315599679947, 0.00028284150175750256, 0.014056982472538948, -0.006198285613209009, -0.02728860266506672, 0.0689050704240799, 0.029923131689429283, 0.021685386076569557, -0.012887141667306423, 0.05030348151922226, 0.05590066686272621, 0.034619204699993134, -0.006404993124306202, 0.027282120659947395, 0.004407756961882114, 0.045110270380973816, 0.013187950477004051, 0.04341577738523483, -0.057299185544252396, -0.0312027744948864, 0.005812239833176136, -0.026830224320292473, 0.02440565824508667, -0.05870135501027107, -0.03256414830684662, -0.01619993895292282, 0.11812834441661835, 0.026742735877633095, -0.03205500543117523, -0.014663608744740486, -0.041576024144887924, -0.009264184162020683, 0.0012940641026943922, 0.12951913475990295, 0.028026653453707695, -0.000514509913045913, 0.03133457154035568, 0.012101152911782265, 0.009373443201184273, -0.049301933497190475, 0.04049399122595787, 0.03773501515388489, -0.025135232135653496, -0.011768840253353119, -0.03218347206711769, -0.01511245034635067, -0.005551336333155632, -0.05069458484649658, 0.06897833198308945, -0.021788164973258972, 0.027358124032616615, -0.07274794578552246, 0.04634018987417221, 0.020061330869793892, 0.0314960703253746, 0.011790569871664047, -0.007456355728209019, -0.0001494846073910594, 0.01598334312438965, 0.03541013225913048, -0.04174671694636345, -0.016174498945474625, 0.0615566149353981, -0.0697016641497612, -0.0488816574215889, 0.009009170345962048, 0.024716291576623917, -0.036003172397613525, 0.0539596825838089, 0.010100890882313251, -0.019768593832850456, -0.04982719197869301, 0.03666311874985695, -0.06332415342330933, -0.04331532120704651, -0.04254674166440964, -0.019410058856010437, 0.098477303981781, -0.0037186581175774336, 0.07061289250850677, 0.06954607367515564, 0.012691144831478596, 0.04450696334242821, 0.024130649864673615, 0.034354254603385925, 0.006652649957686663, -0.011340262368321419, 0.010453001596033573, 0.027859125286340714, 0.006608376279473305, -0.031156517565250397, -0.08475782722234726, 0.002443269593641162, 0.03145924583077431, -0.06643131375312805, -0.09187552332878113, 0.05433610826730728, 0.001589463441632688, -0.0756324902176857, -0.046125441789627075, -0.02088073641061783, -0.021202465519309044, 0.08014798164367676, 0.04893471673130989, 0.058431725949048996, -0.07026925683021545, -0.05132589116692543, 0.007083117961883545, -0.009546194225549698, 0.022697029635310173, -0.004266883246600628, 0.05585813894867897, 0.07734531164169312, 0.056249938905239105, 0.020738091319799423, 0.053217094391584396, 0.029179753735661507, 0.0024299328215420246, 0.07047752290964127, -0.03253026679158211, 0.017508594319224358, 0.023900125175714493, -0.0032912357710301876, -0.05471920594573021, 0.016845937818288803, 0.04608926922082901, 0.03159337118268013, 0.015329823829233646, 0.05804290995001793, -0.016577886417508125, 0.029321298003196716, 0.027408458292484283, 0.09656970947980881, 0.020087335258722305, -0.008413531817495823, -0.02608674205839634, 0.03409884497523308, 0.06288374215364456, 0.04529231786727905, -0.026980135589838028, 0.01317728403955698, 0.03559112176299095, -0.0421055369079113, -0.024814609438180923, 0.09101404994726181, 0.07538820058107376, -0.020123472437262535, -0.03307262063026428, 0.06003706157207489, 0.009011094458401203, -0.01196045521646738, 0.029171157628297806, 0.03677157685160637, 0.02125842124223709, -0.0215200986713171, -0.03381113335490227, -0.012345125898718834, -0.007548131514340639, -0.0033712724689394236, 0.018657902255654335, -0.014741791412234306, 0.023587757721543312, 0.0426381379365921, -0.004175899084657431, -0.06802625954151154, -0.017586223781108856, 0.00828110333532095, 0.025844963267445564, 0.037506986409425735, -0.04238222911953926, 0.0035324839409440756, 0.0173116996884346, 0.007812023628503084, -0.03255947306752205, 0.01608087867498398, -0.00393571937456727, 0.03382480517029762, 0.02462284080684185, -0.07419175654649734, 0.037186186760663986, 0.007401089183986187, 0.03675083816051483, 0.014750432223081589, -0.03456193208694458, -0.06936842948198318, -0.011467376723885536, 0.01601746492087841, 0.030259691178798676, -0.015840156003832817, 0.07914861291646957, 0.013087134808301926, 0.043385595083236694, -0.011361141689121723, -0.05810136720538139, -0.03554690256714821, -0.02776859700679779, 0.012448801659047604, -0.05492697283625603, -0.027835091575980186, 0.033351898193359375, -0.0024653358850628138, 0.06280256062746048, 0.028236892074346542, -0.022119738161563873, 0.03667652606964111, -0.03263680264353752, 0.005040125455707312, 0.0054469541646540165, -0.028948739171028137, -0.019934233278036118, 0.030872177332639694, -0.00934009812772274, 0.08269021660089493, -0.05685853958129883, -0.07773260027170181, 0.05310090631246567, -0.007228859234601259, 0.03778619319200516, -0.017950687557458878, -0.014992675743997097, 0.01986851915717125, -0.05247778818011284, -0.05845281109213829, -0.003188803791999817, -0.011408774182200432, -0.03367709368467331, -0.021423542872071266, -0.04319152981042862, -0.018084006384015083, -0.0021734971087425947, -0.024251190945506096, 0.054847732186317444, 3.9906819438328966e-05, -0.051991239190101624, 0.0007862158236093819, -0.047084130346775055, 0.007425849791616201, -0.0125042162835598, -0.006817496381700039, 0.0781659185886383, 0.008057513274252415, -0.07166912406682968, -0.00875135324895382, 0.04071566089987755, -0.02986782230436802, 0.016317391768097878, 0.032471317797899246, 0.010973126627504826, 0.017652073875069618, -0.007253996096551418, 0.0763929933309555, -0.052071016281843185, -0.031221570447087288, -0.05213933438062668, -0.008587104268372059, 0.04244754835963249, 0.03742683678865433, 0.026380237191915512, -0.005577404052019119, 0.00016624144336674362, -0.05724971741437912, -0.030302980914711952, 0.0005812393501400948, -0.06978864967823029, 0.07709342241287231, -0.005341093521565199, 0.04401379078626633, 0.07254411280155182, -8.458398224320263e-05, -0.00038270512595772743, -0.03355336934328079, -0.035236574709415436, 0.042619507759809494, 0.04867572709918022, -0.03474472090601921, 0.06459129601716995, -0.03362122178077698, -0.012301436625421047, 0.03199201822280884, 0.029602812603116035, 0.05518405884504318, -0.011901690624654293, 0.0965784564614296, -0.04462067782878876, -0.09022631496191025, 0.004173289053142071, 0.09007617831230164, -0.004366329405456781, 0.02508174255490303, -0.0159884262830019, -0.05337908864021301, 0.05113653093576431, 0.023421315476298332, -0.055397480726242065, 0.08344901353120804, -0.0007528855931013823, -0.033902451395988464, -0.016290292143821716, -0.03582990914583206, 0.04303593933582306, -0.014862854965031147, -0.026806607842445374, -0.028699876740574837, -0.027097323909401894, 0.036472950130701065, -0.05376674234867096, 0.0005874638445675373, -0.09634098410606384, -0.017846185714006424, -0.08257896453142166, 0.04081849753856659, 0.007205976638942957, 0.0013663993449881673, 0.004098745994269848, 0.022119615226984024, -0.034966371953487396, 0.030963623896241188, 0.01977081410586834, 0.03949950262904167, 0.019399188458919525, 0.053131308406591415, -0.02954130806028843, -0.09621593356132507, 0.004253852646797895, 0.06350895017385483, 0.07906469702720642, 0.03359849005937576, 0.007225594483315945, 0.03406999260187149, 0.007396141532808542, 0.004878262989223003, 0.012656125240027905, 0.005322863347828388, 0.025293299928307533, 0.02217680774629116, -0.023010656237602234, 0.005712411366403103, 0.020070958882570267, 0.011592814698815346, 0.011883273720741272, 0.06263929605484009, 0.05000164732336998, 0.11071229726076126, 0.06863521039485931, 0.036300208419561386, 0.034717634320259094, -0.06630796194076538, 0.09820527583360672, 0.11264592409133911, 0.046246398240327835, 0.07106424123048782, -0.02330228127539158, -0.04218243435025215, -0.05901927873492241, -0.001979755237698555, -0.028582537546753883, -0.08137812465429306, -0.012627461925148964, 0.0033300111535936594, 0.005920803640037775, -0.019673524424433708, 0.03716300055384636, 0.037605468183755875, 0.054652851074934006, 0.00409654201939702, 0.01665502041578293, 0.006695892196148634, 0.014043294824659824, 0.024205606430768967, -0.004357518162578344, 0.06524983048439026, -0.01694439724087715, -0.026332704350352287, -0.014052622020244598, -0.005341244861483574, -0.0805201381444931, -0.00495530478656292, 0.0238078273832798, 0.06805296987295151, 0.07604265958070755, 0.03064602240920067, -0.043988440185785294, 0.008605433627963066, 0.009741422720253468, -0.03382150083780289, -0.021224452182650566, 0.012612140737473965, 0.02473527379333973, 0.021619753912091255, 0.01895103044807911, -0.0205233134329319, 0.023553134873509407, -0.004724163096398115, -0.027347423136234283, -0.07970622926950455, -0.023586126044392586, -0.046069808304309845, 0.0069187055341899395, 0.017315855249762535, 0.08227337896823883, -0.0162725318223238, 0.03357086703181267, 0.015286457724869251, -0.0015297712525352836, -0.0061788978055119514, -0.02733956277370453, -0.04430332034826279, -0.049345437437295914, -0.029964938759803772, -0.013391180895268917, 0.015957796946167946, 0.007602906785905361, -0.03140486031770706, 0.04178875684738159, -0.01746901497244835, 0.005222678650170565, -0.062235478311777115, -0.027947373688220978, -0.007988384924829006, 0.04021685570478439, 0.025287354364991188, 0.020826024934649467, -0.026479367166757584, 0.016264336183667183, -0.08930424600839615, 0.004145645070821047, 0.010553009808063507, -0.022826053202152252, 0.04531489685177803, -0.02931348979473114, 0.05259019508957863, -0.012062588706612587, 0.00032959002419374883, -0.003404017072170973, 0.021916642785072327, -0.052033763378858566, -0.007819393649697304, 0.02797854132950306, 0.056315936148166656, -0.04479198157787323, 0.07818575948476791, -0.01852651685476303, 0.04257030785083771, 0.019933056086301804, -0.023715820163488388, -0.00031762002618052065, -0.002785067306831479, 0.02645057439804077, 0.025335313752293587, -0.008643445558845997, 0.03381955251097679, 0.025290029123425484, 0.04218650236725807, -0.07327505201101303, -0.018238792195916176, -0.051542945206165314, -0.009985440410673618, -0.057367950677871704, -0.033466361463069916, 0.07350379228591919, 0.005531604401767254, -0.01314206887036562, 0.017208542674779892, 0.01779976487159729, -0.044963497668504715, -0.02292998880147934, 0.011110931634902954, 0.06030901148915291, 0.0503336638212204, -0.0642574355006218, -0.0031306229066103697, -0.06215881556272507, 0.025260837748646736, -0.03757753223180771, -0.022106178104877472, -0.00029632230871357024, -0.03893711045384407, 0.054679375141859055, 0.04495516046881676, -0.0879085510969162, -0.02238001860678196, 0.01344534195959568, 0.07556905597448349, 0.03498462587594986, -0.04136704280972481, -0.05114373564720154, 0.025765659287571907, -0.05043017119169235, -0.04723915457725525, 0.0678388923406601, 0.03951408714056015, 0.030987771227955818, -0.06078781560063362, -0.033707063645124435, -0.032152000814676285, -0.029926348477602005, -0.0026174059603363276, 0.03226986899971962, -0.09772190451622009, 0.0932861790060997, 0.013511709868907928, 0.06625457853078842, -0.003206598339602351, 0.0049274759367108345, -0.05494595319032669, 0.03164329007267952, 0.0011812974698841572, 0.03849532827734947, -0.0003009473148267716, -0.016264135017991066, 0.06563258171081543, 0.04552619531750679, -0.007886483334004879, 0.04578041285276413, 0.011075633578002453, -0.028469212353229523, 0.041729770600795746, 0.00023915547353681177, -0.02010115049779415, -0.09061043709516525, -0.07094794511795044, -0.02170725166797638, 0.01892627216875553, -0.017422325909137726, -0.009598394855856895, -0.02648320235311985, -0.07797565311193466, 0.05852119252085686, 0.0326477587223053, 0.019983604550361633, -0.003649131627753377, 0.037855327129364014, 0.02081361785531044, 0.006631767842918634, -0.019781118258833885, 0.019543029367923737, -0.04500596225261688, -0.011926556937396526, -0.03062133491039276, -0.062495820224285126, 0.048902589827775955, -0.08863762766122818, 0.021304592490196228, -0.0020058511290699244, -0.07153035700321198, 0.011601749807596207, -0.02130625955760479, 0.0020433038007467985, 0.03309640660881996, -0.029233189299702644, -0.021695030853152275, -0.006257362198084593, -0.007341891061514616, 0.03607949614524841, -0.02268354408442974, 0.10156042873859406, 0.010596304200589657, 0.00939121562987566, 0.022614378482103348, 0.04495147243142128, -0.026891497895121574, 0.00305705307982862, -0.0302626583725214, 0.02489016205072403, 0.06237288564443588, 0.07071341574192047, 0.01115371286869049, 0.029795682057738304, -0.08615917712450027, -0.0015336275100708008, 0.05146383121609688, -0.022601118311285973, 0.04070735350251198, 0.036964915692806244, -0.03120163455605507, -0.009939662180840969, -0.057759806513786316, -0.025759203359484673, -0.0062232231721282005, 0.02862529829144478, -0.05944718420505524, 0.030677108094096184, 0.08114869147539139, 0.032536789774894714, -0.05883166566491127, 0.033215586096048355, 0.08712521195411682, 0.02500314824283123, 0.05984073504805565, -0.014705352485179901, -0.07079830020666122, 0.01784740947186947, 0.0315212719142437, 0.03823145851492882, 0.090487539768219, -0.023035015910863876, -0.007549096364527941, 0.05074144899845123, -0.007197675295174122, -0.00015133159467950463, 0.004173511639237404, -0.012618216685950756, 0.033106204122304916, 0.019286034628748894, 0.022784104570746422, 0.02938021346926689, -0.09488356858491898, -0.03823217377066612, 0.02679915353655815, -0.03178248181939125, 0.004161100834608078, 0.06483136862516403, 0.04917259141802788, -0.02261194959282875, 0.014905574731528759, 0.04032790660858154, -0.10346069186925888, -0.010044962167739868, -0.017689168453216553, -0.020131032913923264, -0.007535072509199381, -0.022585805505514145, -0.01372633595019579, 0.006476822774857283, 0.024927789345383644, 0.04144131392240524, -0.020113660022616386, -0.001765789813362062, -0.019482912495732307, 0.004619460087269545, -0.03651886805891991, 0.009526938199996948, -0.029087262228131294, 0.017574721947312355, 0.0033058079425245523, -0.030594797804951668, -0.03191012516617775, 0.021074241027235985, 0.04298543930053711, 0.05199655890464783, 0.022176848724484444, 0.007874409668147564, 0.0362178198993206, 0.051779381930828094, 0.023524591699242592, -0.04645649343729019, -0.0017984096193686128, -0.06549033522605896, 0.020823227241635323, -0.03350408747792244, 0.004470721818506718, 0.038154568523168564, 0.05658813565969467, -0.0306785199791193, 0.021875545382499695, 0.00835343450307846, -0.007746461313217878, -0.01127852313220501, 0.03599930554628372, 0.050098199397325516, -0.06125461682677269, -0.022397302091121674, 0.0033654975704848766, -0.019177405163645744, 0.02814333327114582, 0.02655615098774433, -0.018837055191397667, -0.007222350221127272, 0.03802577033638954, -0.03905695676803589, 0.07989415526390076, 0.0020619994029402733, 0.007489390671253204, 0.015161906369030476, 0.05468069016933441, -0.053239814937114716, 0.04437168315052986, 0.0034181526862084866, -0.02893933095037937, -0.017877385020256042, -0.013322878628969193, 0.04139881208539009, 0.05809544771909714, 0.004625577013939619, 0.023443682119250298, -0.016588781028985977, -0.11942728608846664, 0.03280079364776611, -0.08517897874116898, -0.033803798258304596, -0.0048329755663871765, -0.0025239267852157354, 0.04312789440155029, 0.04668470099568367, 0.035021159797906876, -0.010377992875874043, -0.028587333858013153, -0.023524094372987747, 0.0017982990248128772, -0.06724563986063004, -0.002621737774461508, -0.006532635539770126, -0.060215145349502563, 0.023202290758490562, 0.006137272343039513, 0.05898357555270195, 0.05259304866194725, -0.05032062903046608, 0.020923985168337822, 0.02198605239391327, 0.013294883072376251, 0.06148349866271019, -0.032331470400094986, -0.015060683712363243, -0.009040633216500282, -0.022412236779928207, 0.05167011916637421, -0.03580382466316223, -0.01863888092339039, -0.055346500128507614, -0.013390575535595417, 0.01136435754597187, 0.0052575115114450455, 0.05914925038814545, 0.06644248962402344, -0.01591580919921398, 0.04852438345551491, 0.061125997453927994, -0.04614495486021042, -0.0675022304058075, 0.021678144112229347, 0.052670203149318695, 0.026461400091648102, 0.003786632092669606, 0.036184996366500854, -0.026154853403568268, -0.0011540319537743926, 0.04508063197135925, 0.02799711562693119, -0.002938631922006607, -0.028608106076717377, 0.04057905077934265, 0.03478528559207916, -0.04818040132522583, 0.021684633567929268, -0.06617807596921921, 0.03517824038863182, 0.012099540792405605, 0.062275052070617676, -0.009236312471330166, 0.00211793533526361, -0.0005738944746553898, 0.0438392199575901, 0.01610354520380497, 0.03250797465443611, 0.010879943147301674, -0.04514636844396591, 0.018615225329995155, 0.016807937994599342, -0.0117851747199893, 0.017850369215011597, 0.03870781511068344, 0.07411762326955795, 0.054258160293102264, 0.0625251904129982, -0.05865523964166641, 0.010764531791210175, 0.010059259831905365, 0.056715451180934906, 0.008944430388510227, -0.005063322372734547, -0.0011527398601174355, -0.0036814077757298946, -0.014637512154877186, -0.050626713782548904, -0.012694579549133778, 0.024468347430229187, 0.06595833599567413, 0.03728781268000603, -0.006422252859920263, -0.03921074420213699, 0.004258458502590656, 0.022198917344212532, -0.033206094056367874, 0.008987442590296268, -0.011558068916201591, 0.03942107409238815, -0.07296576350927353, 0.013474234379827976, 0.051988497376441956, 0.010145135223865509, 0.027336975559592247, 0.025084035471081734, 0.008904916234314442, 0.061758920550346375, 0.07927070558071136, -0.014003576710820198, -0.022942787036299706, -0.04981861636042595, 0.01467091403901577, -0.061917129904031754, 0.0004572106117848307, 0.010780938901007175, 0.05433391034603119, 0.03597744554281235, -0.03344562649726868, 0.03545777499675751, -0.03063732571899891, -0.03391348198056221, 0.007027062121778727, -0.009085964411497116, -0.008919235318899155, -0.045497070997953415, -0.055594269186258316, 0.07969479262828827, 0.022160641849040985, -0.007191058713942766, -0.048744723200798035, -0.04352360591292381, -0.013137786649167538, 0.0002960366546176374, 0.02175958640873432, 0.04977419599890709, 0.047807760536670685, -0.008012182079255581, -0.06293483823537827, -0.021019382402300835, 0.03236447274684906, -0.0783899575471878, -0.04954879358410835, 0.00427476828917861, 0.00843349751085043, -0.12725213170051575, -0.06693682819604874, 0.012138942256569862, 0.02599162422120571, -0.021268408745527267, -0.060653600841760635, -0.019871976226568222, 0.013817556202411652, 0.039554525166749954, -0.021739430725574493, -0.052082210779190063, -0.014571267180144787, -0.01100812666118145, 0.02158660627901554, 0.02672945335507393, 0.06182802841067314, -0.023903552442789078, 0.0030959027353674173, 0.07606910169124603, 0.011128537356853485, 0.06042307987809181, -0.011553887277841568, 0.006523309275507927, -0.05081454664468765, -0.006176390219479799, 0.06665331870317459, 0.025851622223854065, -0.010442101396620274, -0.0019062734209001064, -0.06842656433582306, 0.04480091854929924, -0.024238385260105133, 0.027927657589316368, 0.0035026674158871174, -0.11389458924531937, 0.03167308121919632, -0.008723135106265545, 0.016027571633458138, 0.09686754643917084, 0.0007951801526360214, 0.008343638852238655, -0.017446117475628853, 0.014693819917738438, -0.016606861725449562, 0.023092420771718025, -0.03827010095119476, -0.022068684920668602, -0.0075540379621088505, -0.04323304444551468, -0.009513717144727707, -0.0029609210323542356, -0.04350991174578667, 0.038123514503240585, 0.013802270404994488, -0.0031771825160831213, -0.0015163255156949162, -0.05687548220157623, -0.052712153643369675, -0.04672511667013168, 0.048626262694597244, -0.1007997989654541, -0.05183688923716545, -0.04387877136468887, 0.05327990651130676, 0.03164742514491081, 0.01631689816713333, -0.04873960092663765, 0.010421901941299438, -0.017021171748638153, 0.12682375311851501, -0.025246376171708107, -0.009479191154241562, -0.005420740228146315, 0.01378044206649065, -0.042678117752075195, -0.04791276529431343, 0.04918310046195984, 0.02404717542231083, -0.011325675994157791, -0.020722083747386932, 0.031370144337415695, -0.03596842661499977, 0.013539589941501617, 0.07161466032266617, -0.038490261882543564, -0.05419228598475456, 0.033627334982156754, 0.016590256243944168, 0.06659329682588577, 0.01888156123459339, 0.004405298735946417, 0.0841270238161087, -0.005256348289549351, 0.023411542177200317, 0.006691482849419117, 0.022816289216279984, -0.06713005155324936, -0.020766062662005424, 0.00011246206850046292, -0.006089183501899242, 0.02879651077091694, -0.08302117139101028, -0.005454499740153551, 0.09453409910202026, 0.011501255445182323, 0.03758905455470085, -0.04349285736680031, 0.01318939495831728, 0.013310769572854042, -0.01319169532507658, -0.014465773478150368, 0.07644598931074142, -0.04741567745804787, 0.0037410352379083633, 0.06252848356962204, 0.014999635517597198, 0.03294798359274864, -0.00024522474268451333, -0.0805085077881813, 0.008188693784177303, 0.02929324470460415, 0.017880257219076157, 0.021026263013482094, 0.01854652911424637, -0.01682235859334469, -0.09967556595802307, -0.028788503259420395, 0.0038493601605296135, -0.12263593077659607, -0.020217934623360634, 0.04408574104309082, -0.026840021833777428, -0.0013793299440294504, 0.041213586926460266, 0.014691849239170551, -0.0006488129729405046, 0.013909036293625832, -0.03969123587012291, 0.006082931999117136, -0.005537657532840967, -0.027314549311995506, -0.033278029412031174, -0.03725079074501991, 0.04100733622908592, -0.07131549715995789, -0.03410356119275093, -0.02321319840848446, 0.08844491094350815, 0.010710666887462139, 0.06658889353275299, 0.009497183375060558, 0.024240728467702866, -0.07062861323356628, -0.010822935029864311, -0.08123154193162918, -0.048645082861185074, -0.007285231724381447, 0.06152933090925217, -0.06692909449338913, -0.04075857251882553, 0.0062352451495826244, -0.03207184746861458, -0.015884030610322952, 0.018022144213318825, 0.03726697713136673, 0.03612427040934563, 0.030147738754749298, 0.03695627301931381, 0.029719490557909012, 0.019787810742855072, -0.0017682687612250447, 0.009291919879615307, -0.07790135592222214, -0.04405049979686737, -0.0940198302268982, -0.00423117820173502, -0.04876597598195076, 0.03925580531358719, 0.015878276899456978, 0.02565537765622139, -0.040131911635398865, 0.026180507615208626, 0.011761370114982128, -0.02375689521431923, 0.056700773537158966, -0.08794831484556198, -0.04717192053794861, -7.306132465600967e-05, -0.031566593796014786, -0.03741404041647911, 0.01341486070305109, 0.02463349886238575, -0.012087884359061718, -0.026349887251853943, -0.07630348205566406, -0.04976963624358177, 0.023817425593733788, 0.003524528816342354, -0.027596445754170418, 0.05345212295651436, -0.06230435520410538, -0.013760753907263279, -0.02045055292546749, 0.03480678051710129, 0.020208943635225296, -0.024946212768554688, -0.003771782387048006, -0.025716552510857582, -0.060765620321035385, -0.035967085510492325, 0.0016651200130581856, 0.024944299831986427, 0.002237372798845172, -0.04636489599943161, -0.0653388574719429, 0.04276495799422264, 0.0005939953844062984, 0.056599974632263184, -0.06531703472137451, 0.006077527068555355, 0.011498233303427696, 0.04860826954245567, -0.039582476019859314, -0.03667428717017174, 0.0346200056374073, -0.0027816828805953264, 0.006887716706842184, 0.04689920321106911, -0.029666434973478317, -0.08341455459594727, 0.09189464151859283, 0.06739003211259842, -0.039623770862817764, -0.004879148211330175, 0.08644744008779526, -0.03323622792959213, -0.02437237650156021, 0.07845502346754074, 0.028019260615110397, -0.026607921347022057, -0.02897418662905693, -0.023698998615145683, -0.006902776192873716, -0.01832042634487152, 0.021624373272061348, -0.04550999775528908, 0.006450049113482237, -0.02229890041053295, -0.05445561185479164, -0.053321246057748795, -7.514919707318768e-05, -0.004306382033973932, 0.019264021888375282, 0.002476747613400221, 0.02057369239628315, 0.009918080642819405, -0.030591154471039772, 0.019993150606751442, -0.007580626290291548, -0.03429897502064705, 0.03887936845421791, -0.03854704648256302, -0.05263695865869522, 0.024465925991535187, 0.0443941131234169, -0.03894573822617531, -0.007328006438910961, -0.005394140258431435, 0.07782644033432007, -0.004628621507436037, 0.02988492324948311, -0.09205793589353561, -0.003640479641035199, -0.05927741155028343, -0.035523537546396255, 0.02854856103658676, -0.02247115597128868, 0.03387469798326492, -0.0037176385521888733, -0.00899907574057579, -0.018364286050200462, 0.007572083733975887, 0.057052504271268845, -0.034874070435762405, -0.05376889556646347, -0.09873400628566742, -0.02455677092075348, 0.05607449635863304, 0.00043912362889386714, -0.03453606739640236, -0.009409265592694283, -0.08591576665639877, 0.004584155976772308, 0.07181867957115173, 0.04015413671731949, -0.024868806824088097, 0.024110762402415276, 0.05047435685992241, 0.02704027108848095, 0.02040557935833931, 0.027112528681755066, 0.0058866702020168304, 0.03209751099348068, -0.08628883957862854, -0.04243725165724754, 0.008647463284432888, 0.017425784841179848, -0.003986199386417866, -0.03611434996128082, -0.04747752100229263, -0.0840509906411171, -0.0289243645966053, 0.024507539346814156, 0.0037660119123756886, 0.054974012076854706, 0.014650599099695683, 0.008631729520857334, -0.06767994165420532, -0.02869693748652935, 0.03617827966809273, -0.07197224348783493, 0.01139628142118454, -0.005335523281246424, -0.10162363201379776, 0.015544258989393711, -0.017770150676369667, 0.03316266089677811, 0.04548472911119461, 0.046297576278448105, 0.030418582260608673, 0.01423843577504158, -0.07063726335763931, 0.03308530151844025, -0.05293605104088783, -0.05966143310070038, 0.08101469278335571, -0.022240959107875824, -0.025459226220846176, -0.0009728656150400639, -0.01827956549823284, -0.0006137113086879253, -0.06921654939651489, 0.06219186261296272, -0.008276423439383507, -0.0008259178139269352, 0.004528737161308527, -0.021290138363838196, -0.055514514446258545, 0.013540568761527538, 0.063472680747509, -0.10417208820581436, -0.026027865707874298, 0.02998538501560688, 0.045172300189733505, 0.016133837401866913, 0.03680340573191643, 0.027386650443077087, -0.0187608040869236, 0.012898330576717854, 0.008239439688622952, -0.044780295342206955, -0.0030772224999964237, -0.004482495132833719, -0.0005025408463552594, -0.042161934077739716, -0.0030483491718769073, -0.04853248596191406, -0.029003534466028214, 0.06917736679315567, -0.04810753092169762, 0.016819573938846588, -0.030655503273010254, -0.026123197749257088, -0.004516580607742071, -0.0006845579482614994, -0.009211590513586998, 0.06712760031223297, 0.009290408343076706, 0.004305389244109392, -0.08059662580490112, 0.058050915598869324, 0.04759375378489494, 0.10609560459852219, 0.08990266919136047, -0.051211949437856674, -0.011812427081167698, 0.01647554710507393, -0.001746044377796352, -0.0063141412101686, 0.023673832416534424, -0.006256345193833113, -0.02519151382148266, 0.024038542062044144, -0.02230094000697136, 0.03662780299782753, -0.040650274604558945, -0.009121622890233994, 0.007692193146795034, 0.06241718307137489, 0.0625871941447258, 0.03709019720554352, 0.03330641984939575, -0.008691227994859219, 0.005831118207424879, 0.0385255366563797, 0.08306795358657837, 0.07194256782531738, -0.033517953008413315, 0.07623609155416489, 0.007021846249699593, 0.024098247289657593, 0.002418209332972765, -0.023337148129940033, -0.02688913233578205, -0.060063716024160385, -0.07991765439510345, 0.03511188179254532, -0.024274051189422607, -0.03878984600305557, -0.0713740810751915, 0.0010051787830889225, 0.02582910656929016, 0.04093831777572632, 0.01272888295352459, 0.0013986952835693955, 0.013804445043206215, -0.017580492421984673, 0.02640354633331299, -0.004084820859134197, -0.013986164703965187, -0.03500911593437195, 0.029820233583450317, 0.09248355776071548, -0.006377908401191235, -0.05428473651409149, 0.00477107847109437, -0.08478496968746185, -0.008015959523618221, -0.00035265926271677017, 0.09248445183038712, -0.035706404596567154, 0.03583604842424393, -0.061871904879808426, -0.03130800276994705, 0.08293811976909637, -0.005430740769952536, 0.0007342109456658363, -0.010092739015817642, -0.029156865552067757, -0.033825140446424484, -0.07408202439546585, -0.05378155782818794, -0.0068557909689843655, -0.031097412109375, 0.01443084143102169, -0.012683899141848087, -0.032593533396720886, -0.0075624724850058556, 0.05774308368563652, 0.024491816759109497, 0.0015508084325119853, -0.02434430830180645, -0.03871046379208565, -0.011200149543583393, -0.07094374299049377, 0.029736101627349854, -0.009138665162026882, 0.037433359771966934, -0.04710345342755318, -0.011191240511834621, 0.007934266701340675, 0.06086654216051102, 0.012883281335234642, 0.005969985853880644, 0.005453312769532204, 0.008646135218441486, -0.058943942189216614, 0.0452355220913887, -0.025636550039052963, 0.040982507169246674, -0.04652576893568039, -0.009273845702409744, 0.01662764884531498, 0.0030845769215375185, 0.004580286331474781, 0.009884853847324848, -0.009253926575183868, 0.03473891317844391, 0.014129902236163616, 0.02262701839208603, 0.005209001712501049, -0.009385968558490276, -0.05389820784330368, -0.08249296247959137, 0.011071677319705486, -0.024941442534327507, 0.007828540168702602, -0.03389335423707962, -0.013227831572294235, -0.04551778733730316, 0.04312979057431221, -0.024317219853401184, 0.027754317969083786, 0.00514598935842514, 0.08778128027915955, -0.025626996532082558, 0.005373602267354727, -0.020776234567165375, -0.026698922738432884, 0.034792691469192505, -0.044007934629917145, 0.0023041306994855404, 0.03635273873806, 0.03423194959759712, -0.056081414222717285, 0.004483031574636698, 0.049213383346796036, -0.020949535071849823, 0.0023457244969904423, 0.06256211549043655, 0.022390296682715416, -0.047962501645088196, 0.07403944432735443, 0.008746666833758354, -0.081801638007164, -0.0112315583974123, 0.05583757534623146, -0.006467696279287338, -0.06049612537026405, 0.0241139717400074, -0.00473207700997591, 0.006926222704350948, 0.011849033646285534, -0.0357096791267395, -0.044945091009140015, 0.04670295864343643, 0.03728681057691574, -0.009765428490936756, -0.06946265697479248, -0.06766730546951294, 0.07412611693143845, -0.009133266285061836, 0.0631326287984848, 0.04437272623181343, -0.08175262808799744, -0.07620006054639816, 0.029442908242344856, 0.0353301465511322, -0.033176928758621216, 0.028225626796483994, -0.06643194705247879, -0.08913489431142807, 0.004883266519755125, 0.0836845114827156, -0.04178457334637642, 0.0065419357270002365, 0.04906980320811272, 0.005678711459040642, 0.03967520222067833, -0.08376934379339218, 0.03825339302420616, -0.04717152193188667, -0.06597840785980225, 0.057947494089603424, 0.0028484745416790247, -0.034159187227487564, -0.007209111470729113, -0.012809830717742443, -0.053434696048498154, 0.024000007659196854, 0.0270894393324852, 0.046039797365665436, -0.05583454668521881, -0.07004395127296448, -0.037870801985263824, -0.029958857223391533, 0.02392011694610119, 0.0611441507935524, -0.025873785838484764, -0.037105493247509, 0.07460031658411026, 0.052240416407585144, -0.004262771923094988, -0.061310235410928726, 0.0027086965274065733, -0.06284341216087341, -0.022623706609010696, -0.04088648036122322, 0.00843551941215992, 0.01183874811977148, 0.019089536741375923, -0.031816400587558746, -0.006070494651794434, -0.023115191608667374, -0.004444165620952845, -0.009228427894413471, -0.05120806768536568, 0.06089179962873459, -0.03044487163424492, -0.026949159801006317, -0.045590829104185104, 0.029638461768627167, -0.024306662380695343, 0.010345843620598316, -0.02447936311364174, -0.01902301050722599, 0.007737696170806885, -0.0066733770072460175, -0.06375575810670853, 0.005446168594062328, -0.022505655884742737, -0.018062973394989967, 0.002629109425470233, -0.010039640590548515, 0.033834949135780334, 0.03709428384900093, -0.03425423800945282, 0.05773664638400078, 0.021602444350719452, -0.004038373939692974, 0.012212935835123062, 0.028590384870767593, 0.004792066290974617, 0.008245367556810379, 0.05296622961759567, 0.07280854135751724, 0.04846494644880295, 0.05194757878780365, 0.023766517639160156, -0.035011135041713715, -0.08575433492660522, 0.029374917969107628, 0.04629206657409668, -0.0077966260723769665, 0.014147127978503704, -0.032009441405534744, -0.023576196283102036, 0.09067720174789429, 0.013890489004552364, 0.00228575780056417, -0.0050393035635352135, 0.06876833736896515, -0.028867702931165695, 0.011630697175860405, -0.021033376455307007, -0.01546481903642416, 0.023818833753466606, 0.008786563761532307, -0.06291019916534424, -0.04331669211387634, -0.019647978246212006, -0.03781550005078316, -0.05007603019475937, 0.01747957617044449, 0.04847903922200203, -0.016291655600070953, -0.08406618237495422, -0.039204515516757965, 0.01677202805876732, -0.04561476409435272, 0.02986639365553856, -0.002564316615462303,